100_101=0.222258;0.195646395218;-1
100_111=0.252041;0.239356776939;-1
100_121=0.287141;0.298870318417;-1
100_131=0.157316;0.0402911482013;-1
101_107=0.2202;0.195099743143;-1
101_117=-0.10817;-0.187317162316;-1
101_127=0.258015;0.115872443665;-1
102_105=0.10153;0.0805822964025;-1
102_115=0.110923;0.13957263156;-1
102_125=0.109392;0.0909090909091;-1
103_104=0.000465294;0.121367009109;-1
103_114=-0.00146479;-0.0212765957447;-1
103_124=-0.00687913;-0.170212765957;-1
104_103=0.0891884;0.121367009109;-1
104_114=0.120165;0.202278348516;-1
104_124=0.101277;-0.0404556697031;-1
105_104=0.211468;0.148249863332;-1
105_115=0.263225;0.103098262355;-1
105_125=0.273328;0.282038037409;-1
106_107=0.16097;0.438250490089;-1
106_117=0.16097;-0.258198889747;-1
106_127=0.16097;0.3620300535;-1
107_110=0.0457732;0.109108945118;-1
107_120=0.201165;0.125;-1
107_130=0.201165;0.142649350539;-1
108_114=0.256772;0.175919798853;-1
108_124=0.160101;0.19790977371;-1
109_108=0.157519;0.229966552752;-1
109_119=0.191835;0.211538461538;-1
109_129=0.124729;0.0800640769025;-1
10_105=0.215221;0.292174354895;-1
10_114=0.251274;0.296143697851;-1
10_123=0.184622;0.0;-1
10_132=0.0777683;-0.0260289603148;-1
10_22=0.272466;0.25007816164;-1
10_32=0.223462;0.258984885141;-1
10_42=0.263525;0.345398474294;-1
10_52=0.215624;0.168467726057;-1
10_62=0.250183;0.2028756678;-1
10_72=0.0799546;-0.120490673178;-1
10_82=0.250944;0.162967069013;-1
10_91=0.275318;0.022086305215;-1
110_111=0.0187095;0.0;-1
110_121=0.073239;0.207524268788;-1
110_131=0.0679561;0.0909241209317;-1
111_118=0.199063;0.25264557632;-1
111_128=0.128167;-0.054554472559;-1
112_116=0.105021;-0.114332390095;-1
112_126=0.0625328;0.140028008403;-1
113_115=0.175064;0.121987509119;-1
113_125=0.1822;0.0;-1
114_115=0.11562;0.315104395624;-1
114_125=0.131562;0.0879598994267;-1
115_116=0.109572;0.440958551844;-1
115_126=0.109572;0.110216678544;-1
116_118=0.263106;0.277895955949;-1
116_128=0.183969;0.102868899975;-1
117_121=-0.0264213;-0.0660338179744;-1
117_131=-0.0147567;0.0385758374905;-1
118_125=0.256459;0.175919798853;-1
119_120=0.175408;0.259437260831;-1
119_130=0.175408;0.0211477467219;-1
11_105=0.202034;0.247435829653;-1
11_115=0.208084;0.238095238095;-1
11_124=0.0990715;0.0900298273213;-1
11_133=0.208487;0.145643816251;-1
11_23=0.208487;0.0445435403187;-1
11_33=0.227311;0.224817757811;-1
11_43=0.211841;0.19075675653;-1
11_53=0.208059;0.204757089837;-1
11_63=0.133398;0.484953385595;-1
11_73=0.228153;0.0654653670708;-1
11_83=0.208487;0.067522370491;-1
11_93=0.113256;0.133630620956;-1
120_123=0.150096;0.20003306605;-1
120_133=0.150096;0.180187492539;-1
121_130=0.185038;0.255813953488;-1
122_128=0.0929425;0.0778761197477;-1
123_127=0.119352;0.19440394784;-1
124_127=0.216653;0.208378559283;-1
125_128=0.23871;0.341881729379;-1
126_130=0.16285;0.26142612057;-1
127_133=0.221379;0.404519917478;-1
129_132=0.0234725;-0.0721687836487;-1
12_108=-0.0869524;-0.19188064472;-1
12_117=0.00206239;0.183711730709;-1
12_127=-0.0475611;-0.0606091526731;-1
12_16=-0.104113;-0.129399327844;-1
12_26=-0.106408;-0.163299316186;-1
12_36=-0.0633788;-0.229415733871;-1
12_46=-0.0448708;-0.0956182887468;-1
12_56=-0.112964;-0.125108648434;-1
12_66=-0.0538639;-0.0458831467741;-1
12_76=-0.0877632;-0.123770549551;-1
12_86=0.031708;0.0639602149067;-1
12_96=-0.0459571;-0.160591013709;-1
131_133=0.276102;0.198206241793;-1
13_107=0.239901;0.181310166906;-1
13_117=-0.103901;-0.108798534972;-1
13_126=0.280623;0.107682623063;-1
13_16=0.215842;0.0459800489872;-1
13_26=0.294619;0.174077655956;-1
13_36=0.329365;0.244557994022;-1
13_46=0.17284;0.101929438288;-1
13_56=0.258586;0.222277112237;-1
13_66=0.185952;0.0978231976089;-1
13_76=0.198721;0.153929823997;-1
13_86=0.0842732;0.0909090909091;-1
13_96=0.346177;0.195646395218;-1
14_106=0.104272;0.12171612389;-1
14_116=0.142312;0.185185185185;-1
14_126=0.0818464;0.252725132192;-1
14_16=0.0953745;0.186771841909;-1
14_26=0.0795379;0.255344115428;-1
14_36=0.114055;0.176604314275;-1
14_46=0.154353;0.0;-1
14_56=0.068246;0.100321544238;-1
14_66=0.128618;0.110377696422;-1
14_76=0.0978142;0.0396994222784;-1
14_86=0.0917355;0.123091490979;-1
14_96=0.151216;0.0662266178533;-1
15_106=0.261808;0.361813613493;-1
15_116=0.31721;0.20184335694;-1
15_126=0.280768;0.250417091772;-1
15_17=0.276035;0.205629030288;-1
15_27=0.296833;0.314694903059;-1
15_37=0.248536;0.228831021419;-1
15_47=0.168549;0.180906806747;-1
15_57=0.200581;0.145307843909;-1
15_67=0.194062;0.119286415873;-1
15_77=0.278594;0.354031765942;-1
15_87=0.299623;0.194758913744;-1
15_97=0.0758515;0.0426401432711;-1
16_107=0.125729;0.0;-1
16_117=-0.0255711;0.0440225453163;-1
16_127=0.206753;0.130713060285;-1
16_19=0.149107;0.214346478703;-1
16_29=0.139675;0.140168303006;-1
16_39=0.166044;0.0952651016459;-1
16_49=0.0700772;0.100120216433;-1
16_59=0.0401076;0.0;-1
16_69=0.208843;0.127082141944;-1
16_79=0.0624233;-0.0501412210564;-1
16_89=0.166226;0.170935201677;-1
16_99=0.146304;0.077330889334;-1
17_109=0.175729;0.232625213941;-1
17_119=0.128006;0.274920707385;-1
17_129=0.194974;0.154078908607;-1
17_22=0.228553;0.122096572626;-1
17_32=0.17222;0.206910220442;-1
17_42=0.25296;0.247331562727;-1
17_52=0.172352;0.0411258060576;-1
17_62=0.207659;0.176090181265;-1
17_72=8.68214e-05;0.0235310402668;-1
17_82=0.241941;0.22733144649;-1
17_92=0.0243236;0.0427081421759;-1
18_102=0.202332;0.206835075998;-1
18_112=0.189084;0.16810223725;-1
18_122=0.189084;0.306242850831;-1
18_132=0.20462;0.0571661950475;-1
18_26=0.222955;0.198029508595;-1
18_36=0.224971;0.250386697834;-1
18_46=0.200907;0.0869656553479;-1
18_56=0.229455;0.0505721737424;-1
18_66=0.224954;0.0834622326112;-1
18_76=0.24238;0.175109477646;-1
18_86=0.221009;0.0775631534993;-1
18_96=0.274667;0.278207442037;-1
19_106=0.114903;0.023281009859;-1
19_116=0.170074;0.148767899715;-1
19_126=0.133374;0.156173761889;-1
19_21=0.113911;0.0455605689002;-1
19_31=0.135665;-0.0433148081824;-1
19_41=0.132551;0.085808464028;-1
19_51=0.165361;0.196818307578;-1
19_61=0.0844945;0.0941763218696;-1
19_71=0.0745885;0.066931612238;-1
19_81=0.077866;0.0212525571021;-1
19_91=0.0899379;0.0662589156449;-1
1_100=0.0370793;0.0;-1
1_11=0.016477;0.0930484210398;-1
1_119=0.0894565;0.0836242010007;-1
1_128=0.0471542;-0.142450720575;-1
1_17=0.0560587;0.252890269429;-1
1_26=0.0650321;0.0435194139889;-1
1_35=0.0962685;0.0697863157799;-1
1_44=0.0481012;-0.0209060502502;-1
1_53=0.0351459;0.133366267342;-1
1_62=0.0630193;0.0217597069945;-1
1_71=0.0343609;0.0430730492254;-1
1_80=0.0190309;0.172292196902;-1
1_9=0.0289028;0.18609684208;-1
1_99=0.0582873;0.0254823595719;-1
20_109=0.20279;0.159586263406;-1
20_119=0.151602;0.273576451553;-1
20_129=0.22327;0.18983159915;-1
20_25=0.310433;0.239800568856;-1
20_35=0.302281;0.228305830244;-1
20_45=0.0355083;0.0464990554975;-1
20_55=0.198178;0.263780625741;-1
20_65=0.278354;0.219687387582;-1
20_75=0.0866401;0.0490143081396;-1
20_85=0.209557;0.0752118315846;-1
20_95=0.291164;0.211370126535;-1
21_105=0.144744;0.272888411455;-1
21_115=0.144744;0.202567111473;-1
21_125=0.144744;0.285869673137;-1
21_22=0.144744;0.28028510152;-1
21_32=0.144744;0.175919798853;-1
21_42=0.144744;0.21506619681;-1
21_52=0.144744;0.118010588647;-1
21_62=0.144744;0.210537980267;-1
21_72=0.144744;0.067522370491;-1
21_82=0.144744;0.282675498323;-1
21_92=0.144744;0.102125921276;-1
22_102=0.147047;0.0724206824378;-1
22_112=0.0210997;0.0;-1
22_122=0.0388016;0.109976467554;-1
22_132=-0.00103331;-0.0266880256342;-1
22_30=0.195642;0.181833516713;-1
22_40=0.239072;0.15851878478;-1
22_50=0.226336;0.0960768922831;-1
22_60=0.269509;0.341870403354;-1
22_70=0.255131;0.282051282051;-1
22_80=0.0301165;-0.0686263516308;-1
22_90=0.0732258;0.0482804549585;-1
23_100=0.152729;0.0870388279778;-1
23_110=0.0175353;-0.0392837100659;-1
23_120=0.108574;0.192879187453;-1
23_130=0.108574;0.154078908607;-1
23_29=0.135273;0.0;-1
23_39=0.162721;0.0225417408667;-1
23_49=-0.0203282;-0.0568573532684;-1
23_59=-0.0497152;-0.11556254088;-1
23_69=0.205445;0.144337567297;-1
23_79=0.0398933;0.0;-1
23_89=0.117008;0.0;-1
23_99=0.143017;0.0731925054711;-1
24_109=0.202121;0.143125643519;-1
24_119=0.200424;0.122679123016;-1
24_129=0.208447;0.127688479614;-1
24_29=0.241955;0.212960850482;-1
24_39=0.273418;0.299345344388;-1
24_49=0.0241875;-0.0968003865828;-1
24_59=0.0349282;0.047219216465;-1
24_69=0.327733;0.29488391231;-1
24_79=0.105866;0.0484786165564;-1
24_89=0.184823;-0.09443843293;-1
24_99=0.260988;0.299066871768;-1
25_109=0.200709;0.202278348516;-1
25_119=0.199012;0.161822678813;-1
25_129=0.207014;0.147376586187;-1
25_30=0.211395;0.047324852428;-1
25_40=0.280979;0.226912674177;-1
25_50=0.265554;0.116691993198;-1
25_60=0.316581;0.200197823985;-1
25_70=0.290281;0.397070560487;-1
25_80=0.0915524;0.0625135677848;-1
25_90=0.118337;0.109949874283;-1
26_100=0.258108;0.130558241967;-1
26_110=0.0612119;0.117851130198;-1
26_120=0.175374;0.173591268707;-1
26_130=0.175374;0.0880450906326;-1
26_32=0.18811;0.239356776939;-1
26_42=0.254767;0.340502612303;-1
26_52=0.175538;0.0;-1
26_62=0.224711;0.229166666667;-1
26_72=0.0151431;0.0890870806375;-1
26_82=0.257254;0.215165741456;-1
26_92=0.0334598;0.161690416691;-1
27_102=0.151688;0.351839597707;-1
27_112=0.151688;0.183826658296;-1
27_122=0.151688;0.0;-1
27_132=0.151688;-0.0729324957489;-1
27_35=0.151688;0.135044740982;-1
27_45=0.151688;0.0412568498504;-1
27_55=0.151688;0.170212765957;-1
27_65=0.151688;0.175428264507;-1
27_75=0.151688;0.0869770764071;-1
27_85=0.151688;0.111221013325;-1
27_95=0.151688;0.12502713557;-1
28_105=0.237225;0.188982236505;-1
28_115=0.243134;0.218217890236;-1
28_125=0.241517;0.341121146169;-1
28_29=0.234876;0.111417202906;-1
28_39=0.260234;0.198776746935;-1
28_49=0.00159532;-0.129986736724;-1
28_59=-0.0280918;-0.0452910813658;-1
28_69=0.305256;0.353553390593;-1
28_79=0.0622248;0.0232495277488;-1
28_89=0.142026;0.249100947512;-1
28_99=0.242827;0.239045721867;-1
29_109=0.111802;0.0364178520365;-1
29_119=0.111802;0.0;-1
29_129=0.111802;0.227429413074;-1
29_34=0.111802;0.160002612309;-1
29_44=0.111802;0.127462482128;-1
29_54=0.111802;0.13130643286;-1
29_64=0.111802;0.324653862019;-1
29_74=0.111802;0.19655396472;-1
29_84=0.111802;0.194758913744;-1
29_94=0.111802;0.106232134769;-1
2_102=0.103309;0.150755672289;-1
2_111=0.166061;0.0206196524711;-1
2_120=0.102806;0.209990975788;-1
2_13=0.197383;0.0430730492254;-1
2_19=0.118436;0.0892421496506;-1
2_29=0.0963486;0.150064494697;-1
2_38=0.17919;0.164398987305;-1
2_47=0.0918136;0.042591771;-1
2_56=0.129603;0.0421262731871;-1
2_65=0.166539;0.248171153204;-1
2_74=0.174755;0.19440394784;-1
2_83=0.139346;0.12502713557;-1
2_92=0.0918136;0.180036010804;-1
30_102=0.156464;0.0244557994022;-1
30_112=0.142675;0.0227155425212;-1
30_122=0.142675;0.0891313035643;-1
30_132=0.157377;0.108147614087;-1
30_38=0.152875;0.133345186766;-1
30_48=0.146384;0.0234146452895;-1
30_58=0.182426;0.169277791692;-1
30_68=0.155672;0.1349763812;-1
30_78=0.205576;0.276909309847;-1
30_88=0.154831;0.304016755163;-1
30_98=0.155877;0.173421993905;-1
31_108=-0.0435317;-0.0418121005004;-1
31_118=-0.0622517;-0.121367009109;-1
31_128=-0.0413109;-0.026207120918;-1
31_35=-0.0217179;-0.106990123128;-1
31_45=0.157533;0.0196116135138;-1
31_55=-0.0480654;-0.0809113394063;-1
31_65=-0.0486844;-0.0370624658331;-1
31_75=0.0754492;0.0413449115297;-1
31_85=-0.045172;-0.148034227053;-1
31_95=-0.0341378;-0.15848577035;-1
32_105=0.158218;0.0805822964025;-1
32_115=0.164501;0.0697863157799;-1
32_125=0.162699;0.0909090909091;-1
32_33=0.183566;0.179712689362;-1
32_43=0.168119;0.186370957477;-1
32_53=0.164408;0.200049401013;-1
32_63=0.125634;-0.0430730492254;-1
32_73=0.184256;0.127920429813;-1
32_83=0.164849;0.0219899748567;-1
32_93=0.136911;0.0652791209834;-1
33_103=-0.0265849;-0.135242030701;-1
33_113=0.17375;0.0628280862438;-1
33_123=0.0796577;0.0;-1
33_133=0.250066;0.446499766481;-1
33_42=0.242577;0.273408298403;-1
33_52=0.148262;0.0178599906592;-1
33_62=0.212473;0.15294382258;-1
33_72=-0.000154888;0.0204379779828;-1
33_82=0.245016;0.138214738144;-1
33_92=0.0274516;-0.07418865121;-1
34_102=0.11368;0.13121597027;-1
34_112=0.11368;-0.0243757474709;-1
34_122=0.11368;-0.0717342149788;-1
34_132=0.11368;-0.0870388279778;-1
34_42=0.11368;0.282329851287;-1
34_52=0.11368;0.117363131703;-1
34_62=0.11368;0.100503781526;-1
34_72=0.11368;-0.053721530935;-1
34_82=0.11368;0.207599718443;-1
34_92=0.11368;0.0487514949418;-1
35_102=0.178194;0.02326210526;-1
35_112=0.0442881;0.108033953925;-1
35_122=0.0595805;-0.10597597585;-1
35_132=0.0289962;0.0257172249937;-1
35_43=0.246036;0.29673273238;-1
35_53=0.251063;0.250258665356;-1
35_63=0.163128;0.0881733428355;-1
35_73=0.235738;0.130930734142;-1
35_83=0.238267;0.292596938794;-1
35_93=0.184777;0.0445435403187;-1
36_103=-0.0372157;-0.023662426214;-1
36_113=0.167681;0.153896752813;-1
36_123=0.0741145;0.0662266178533;-1
36_133=0.235921;0.131243591778;-1
36_45=0.00867288;0.114707866935;-1
36_55=0.172936;0.11831213107;-1
36_65=0.253967;0.173421993905;-1
36_75=0.0604985;0.193460333363;-1
36_85=0.184437;0.247385347998;-1
36_95=0.266276;0.347617330994;-1
37_105=0.0791411;0.0755928946018;-1
37_115=0.129841;0.30550504633;-1
37_125=0.145953;0.19188064472;-1
37_38=0.167673;0.348742916231;-1
37_48=0.122712;-0.122474487139;-1
37_58=0.183572;0.18973665961;-1
37_68=0.150091;0.196116135138;-1
37_78=0.202884;0.24140393963;-1
37_88=0.137278;0.154604136505;-1
37_98=0.131409;0.188982236505;-1
38_108=0.252096;0.346977117968;-1
38_118=0.235;0.119900284428;-1
38_128=0.169229;0.0621369766001;-1
38_42=0.195467;0.242393082782;-1
38_52=0.194302;0.0443351098521;-1
38_62=0.192853;0.261018448832;-1
38_72=0.0939448;0.0507346289432;-1
38_82=0.237186;0.245071540698;-1
38_92=0.263823;0.138122776655;-1
39_102=0.123047;0.141264482804;-1
39_112=0.020336;-0.0656061025261;-1
39_122=0.0179233;0.064356348021;-1
39_132=0.00270355;0.0520579206295;-1
39_47=0.148142;0.0931240394359;-1
39_57=0.146068;0.140248178363;-1
39_67=0.146059;0.0690796948588;-1
39_77=0.237118;0.318923982301;-1
39_87=0.244918;0.143546337059;-1
39_97=0.0637484;0.123466199581;-1
3_106=0.269341;0.392776659532;-1
3_115=0.229995;0.0641940738766;-1
3_124=0.122235;0.121367009109;-1
3_133=0.249265;0.317881976603;-1
3_22=0.239768;0.244263575426;-1
3_32=0.191541;0.334496804003;-1
3_41=0.235458;0.209533312384;-1
3_50=0.258777;0.249615088301;-1
3_6=0.253991;0.0576923076923;-1
3_69=0.289007;0.439137655345;-1
3_78=0.2497;0.273133890273;-1
3_87=0.267113;0.254924964255;-1
3_96=0.303654;0.382433080066;-1
40_106=0.201627;0.358391468152;-1
40_116=0.256786;0.288675134595;-1
40_126=0.220318;0.0808122035642;-1
40_42=0.210732;0.14596008984;-1
40_52=0.130098;0.266969524989;-1
40_62=0.165295;0.102062072616;-1
40_72=-0.0425022;-0.130930734142;-1
40_82=0.199936;0.126491106407;-1
40_92=0.0179208;-0.0198029508595;-1
41_102=0.174608;0.144955189148;-1
41_112=0.048909;-0.0961716310141;-1
41_122=0.0667505;-0.0377358490566;-1
41_132=0.0219569;-0.0457868546496;-1
41_49=0.000461621;-0.162326931009;-1
41_59=-0.0168044;-0.0879811740429;-1
41_69=0.301892;0.320507982547;-1
41_79=0.0728872;0.20323743848;-1
41_89=0.140129;0.197957641597;-1
41_99=0.234058;0.0;-1
42_109=0.187344;0.122679123016;-1
42_119=0.114532;0.143125643519;-1
42_129=0.168927;0.21281413269;-1
42_47=0.165579;0.241772840245;-1
42_57=0.148845;0.1588881424;-1
42_67=0.129291;0.0869565217391;-1
42_77=0.24013;0.322599295215;-1
42_87=0.248559;0.329121314382;-1
42_97=0.0620105;0.0;-1
43_107=0.217465;0.146844619643;-1
43_117=-0.134406;-0.19826289643;-1
43_127=0.300374;0.25509819019;-1
43_46=0.161459;0.0696545190319;-1
43_56=0.232526;0.0607581307414;-1
43_66=0.170005;0.111414129455;-1
43_76=0.175114;0.340613657373;-1
43_86=0.0558491;0.124247304984;-1
43_96=0.297603;0.222828258911;-1
44_106=0.141564;0.103362278824;-1
44_116=0.164664;0.132098987317;-1
44_126=0.103707;0.217917934231;-1
44_46=0.167257;0.0937614461877;-1
44_56=0.100092;-0.081786082011;-1
44_66=0.121133;0.224960635333;-1
44_76=0.0913157;0.141594843961;-1
44_86=0.0419615;0.250872603002;-1
44_96=0.177289;0.247456698866;-1
45_106=0.111139;-0.147572957475;-1
45_116=0.0942671;0.0962250448649;-1
45_126=0.0816039;0.101015254455;-1
45_47=0.0615206;0.126491106407;-1
45_57=0.0541405;0.0508000508001;-1
45_67=0.0437861;0.0417028828114;-1
45_77=0.0482811;0.0206284249252;-1
45_87=0.0416806;-0.185695338177;-1
45_97=0.0467682;-0.0894427191;-1
46_107=0.145118;0.0903507902905;-1
46_117=0.145118;-0.0243975018237;-1
46_127=0.145118;0.217325379787;-1
46_49=0.145118;0.155363866566;-1
46_59=0.145118;0.0811997942941;-1
46_69=0.145118;0.140859042455;-1
46_79=0.145118;0.0555770014377;-1
46_89=0.145118;0.13533299049;-1
46_99=0.145118;0.0857142857143;-1
47_109=0.124283;0.0413449115297;-1
47_119=0.108811;0.0413449115297;-1
47_129=0.140527;0.258198889747;-1
47_52=0.120822;0.180906806747;-1
47_62=0.144362;0.129099444874;-1
47_72=-0.0143178;0.138013111868;-1
47_82=0.163202;0.111111111111;-1
47_92=0.0426373;0.0834965721447;-1
48_102=0.0870289;0.0435194139889;-1
48_112=0.112041;0.0202113020864;-1
48_122=0.10071;0.158610317144;-1
48_132=0.147413;-0.0240562612162;-1
48_56=0.038489;-0.106407066345;-1
48_66=0.0880226;-0.0468292905791;-1
48_76=0.0590658;0.0421075960533;-1
48_86=0.103494;0.108798534972;-1
48_96=0.123932;0.0;-1
49_106=-0.0342747;-0.234888087806;-1
49_116=0.0201425;-0.107211253484;-1
49_126=-0.0165275;0.0562741855113;-1
49_51=0.0151972;0.0;-1
49_61=0.05716;0.11877113737;-1
49_71=-0.0347343;-0.0187580618371;-1
49_81=0.0899418;0.0357370844946;-1
49_91=0.144717;-0.0185695338177;-1
4_100=0.13001;0.0681818181818;-1
4_11=0.13001;0.418717894679;-1
4_119=0.13001;0.104530251251;-1
4_128=0.13001;0.0854704323447;-1
4_17=0.13001;0.298870318417;-1
4_27=0.13001;0.0879598994267;-1
4_36=0.13001;0.342381191631;-1
4_46=0.13001;0.0509647191438;-1
4_55=0.13001;0.0;-1
4_64=0.13001;0.165663073313;-1
4_73=0.13001;0.0639602149067;-1
4_82=0.13001;0.134839972493;-1
4_91=0.13001;0.0852802865422;-1
50_101=0.134876;-0.0648885684523;-1
50_111=0.134876;0.0288675134595;-1
50_121=0.134876;0.335496854732;-1
50_131=0.134876;0.0534522483825;-1
50_57=0.134876;0.0359210604054;-1
50_67=0.134876;0.029488391231;-1
50_77=0.134876;0.408421976194;-1
50_87=0.134876;0.236351579148;-1
50_97=0.134876;0.0;-1
51_107=0.250442;0.280680445712;-1
51_117=-0.0798016;-0.22232432295;-1
51_127=0.333098;0.360072021607;-1
51_54=0.231463;0.200040012004;-1
51_64=0.290041;0.442389502665;-1
51_74=0.291158;0.209609381841;-1
51_84=0.291554;0.264339219217;-1
51_94=0.146859;0.245457846416;-1
52_104=0.0931022;0.168290458202;-1
52_114=0.0931022;0.0590052943236;-1
52_124=0.0931022;0.0;-1
52_51=0.0931022;0.132169609609;-1
52_62=0.0931022;0.175162262436;-1
52_72=0.0931022;-0.0624187783932;-1
52_82=0.0931022;0.0201007563052;-1
52_92=0.0931022;0.0566441184037;-1
53_102=0.182922;0.133366267342;-1
53_112=0.0493674;0.0412920069508;-1
53_122=0.0646069;0.121516261483;-1
53_132=0.0219025;0.0737209780774;-1
53_61=0.0927816;0.0;-1
53_71=0.122323;0.189568229342;-1
53_81=0.0796108;-0.0200643088476;-1
53_91=0.0197483;0.0834057656228;-1
54_101=0.149297;0.23174488733;-1
54_111=0.181917;0.144337567297;-1
54_121=0.208407;0.130713060285;-1
54_131=0.183297;0.171810798372;-1
54_61=0.139211;0.0646095738381;-1
54_71=0.17029;0.0;-1
54_81=0.0688301;-0.116642368704;-1
54_91=0.203062;-0.0404061017821;-1
55_101=0.111261;0.023662426214;-1
55_111=0.115314;0.0210537980267;-1
55_121=0.169883;0.155709418655;-1
55_131=0.131876;0.0194920293896;-1
55_62=0.101746;0.0842151921067;-1
55_72=-0.000136389;-0.0450149136606;-1
55_82=0.112838;0.260931229221;-1
55_92=0.0629457;0.0612755527654;-1
56_102=0.15557;0.0444554224474;-1
56_112=0.0290991;-0.0206460034754;-1
56_122=0.0470462;-0.0202527102471;-1
56_132=0.00112582;0.147441956155;-1
56_64=0.240895;0.101263551236;-1
56_74=0.255515;0.200643088476;-1
56_84=0.218369;0.119286415873;-1
56_94=0.081908;0.119286415873;-1
57_104=0.0539277;0.298881288832;-1
57_114=0.122523;0.0785943775593;-1
57_124=0.0702491;0.0523962517062;-1
57_56=0.107428;0.0794440711999;-1
57_67=0.0844222;0.132406785333;-1
57_77=0.148329;0.157188755119;-1
57_87=0.150998;0.188666652255;-1
57_97=0.0100897;-0.0567961834247;-1
58_107=0.119934;-0.0199204768222;-1
58_117=-0.0164986;-0.0430331482912;-1
58_127=0.200759;0.2768465115;-1
58_61=0.0796828;0.0449466574975;-1
58_71=0.154296;0.042591771;-1
58_81=0.0721137;0.060858061945;-1
58_91=0.0654614;0.0;-1
59_101=0.0239657;-0.129881083367;-1
59_111=0.0306821;0.0462250163521;-1
59_121=0.0208603;0.0976772581011;-1
59_131=0.0162494;0.0;-1
59_66=0.0309755;-0.103904866693;-1
59_76=0.0211776;-0.186856734347;-1
59_86=0.0309755;0.0241402274793;-1
59_96=0.0139917;0.0519524333466;-1
5_105=0.0986106;0.188982236505;-1
5_114=0.111491;0.144398974476;-1
5_123=0.134221;-0.076980035892;-1
5_132=0.121518;-0.0235702260396;-1
5_22=0.11744;0.113227703414;-1
5_32=0.0597626;0.0;-1
5_41=0.118719;0.0194257172471;-1
5_51=0.149613;0.217832459455;-1
5_60=0.14373;0.0431331092814;-1
5_7=0.111047;0.329983164554;-1
5_79=0.099318;0.162746694241;-1
5_88=0.0805763;-0.0662589156449;-1
5_97=0.0593073;0.201246117975;-1
60_107=0.242529;0.0815139145939;-1
60_117=-0.151495;-0.132067635949;-1
60_127=0.324019;0.304997140665;-1
60_63=0.18962;0.196069590428;-1
60_73=0.261866;0.258798655688;-1
60_83=0.264382;0.53386086396;-1
60_93=0.211281;0.176090181265;-1
61_103=0.0410461;0.06596992457;-1
61_113=0.00993004;-0.0715096941934;-1
61_123=0.0885257;0.102576242483;-1
61_133=0.0382458;0.121967344227;-1
61_70=0.0970771;0.120701137396;-1
61_80=0.00322379;-0.0430730492254;-1
61_90=0.0350739;0.0454545454545;-1
62_100=0.204181;0.19583736295;-1
62_110=0.100819;0.0982092751648;-1
62_120=0.162797;0.135015431217;-1
62_130=0.162797;0.220112726581;-1
62_68=0.178068;0.140112134579;-1
62_78=0.208987;0.227429413074;-1
62_88=0.166578;0.0450834817334;-1
62_98=0.171478;0.192879187453;-1
63_108=0.226428;0.172292196902;-1
63_118=0.209867;0.166702847426;-1
63_128=0.140226;0.0539949247156;-1
63_67=0.143368;0.147441956155;-1
63_77=0.241634;0.187540703354;-1
63_87=0.231343;0.187580618371;-1
63_97=0.050874;-0.0451753951453;-1
64_107=0.220252;0.312044816741;-1
64_117=-0.139504;-0.118957737858;-1
64_127=0.303566;0.176606439363;-1
64_67=0.174949;0.121516261483;-1
64_77=0.262334;0.180324877433;-1
64_87=0.280686;0.198399582345;-1
64_97=0.0566132;0.0434372242763;-1
65_107=0.22097;0.357142857143;-1
65_117=-0.149927;-0.0964395937263;-1
65_127=0.282003;0.267261241912;-1
65_68=0.185384;0.0926561645826;-1
65_78=0.240301;0.350931203172;-1
65_88=0.203124;0.229565564561;-1
65_98=0.208397;0.321428571429;-1
66_108=0.157186;0.0733673982067;-1
66_118=0.123629;0.0;-1
66_128=0.103094;0.0306569669742;-1
66_70=0.139786;0.0259762166733;-1
66_80=0.000581334;-0.023174488733;-1
66_90=0.0831121;0.122278997011;-1
67_100=0.144191;0.0889108448949;-1
67_110=0.0980444;0.0401286176953;-1
67_120=0.119074;0.19702760156;-1
67_130=0.119074;0.247331562727;-1
67_73=0.158016;0.14596008984;-1
67_83=0.144142;0.172052957448;-1
67_93=0.108267;0.148969892883;-1
68_103=0.0912548;0.141594843961;-1
68_113=0.132404;0.153485153379;-1
68_123=0.178365;0.0;-1
68_133=0.161378;0.0560968194005;-1
68_77=0.195508;0.182050513664;-1
68_87=0.185212;0.200298186201;-1
68_97=0.0784789;-0.0877058019307;-1
69_107=0.239897;0.222717701594;-1
69_117=-0.108459;-0.144337567297;-1
69_127=0.322281;0.547619047619;-1
69_72=0.0155635;0.154303349962;-1
69_82=0.259586;0.17391639825;-1
69_92=0.0428452;0.0933520056019;-1
6_101=0.155874;0.2024645718;-1
6_110=0.0450386;0.0754851356096;-1
6_12=0.126225;-0.0588348405415;-1
6_129=0.144479;-0.0200160192256;-1
6_18=0.198979;0.118912873539;-1
6_28=0.230381;0.0196116135138;-1
6_38=0.211257;0.182384301035;-1
6_48=0.093237;0.0200160192256;-1
6_57=0.149609;0.0498135481387;-1
6_67=0.127643;0.0408930410055;-1
6_76=0.132137;0.121367009109;-1
6_85=0.133934;0.169181973775;-1
6_94=0.0764257;0.0186989398002;-1
70_104=0.180193;0.0888231183369;-1
70_114=0.262836;0.14014255076;-1
70_124=0.13237;0.21021382614;-1
70_69=0.303879;0.480384461415;-1
70_80=0.037786;0.137252703262;-1
70_90=0.0185234;0.193121819834;-1
71_100=0.13246;0.193828721514;-1
71_110=0.13246;0.252725132192;-1
71_120=0.13246;0.0954504435402;-1
71_130=0.13246;0.130713060285;-1
71_77=0.13246;0.312567838924;-1
71_87=0.13246;0.0375161236742;-1
71_97=0.13246;0.0903507902905;-1
72_107=0.00279524;-0.103098262355;-1
72_117=0.0212007;0.0445435403187;-1
72_127=0.0686621;-0.0881733428355;-1
72_75=0.0700245;0.0690065559342;-1
72_85=0.0783595;-0.094124161067;-1
72_95=0.0686621;-0.132260014253;-1
73_105=0.21128;0.245676907456;-1
73_115=0.216533;0.261861468283;-1
73_125=0.22363;0.0852802865422;-1
73_74=0.231973;0.346410161514;-1
73_84=0.209711;0.171623266064;-1
73_94=-0.0187444;0.0572077553547;-1
74_104=0.140443;0.226455406829;-1
74_114=0.252423;0.277895955949;-1
74_124=0.156494;0.218346822531;-1
74_73=0.240449;0.346410161514;-1
74_84=0.238067;0.20184335694;-1
74_94=0.100616;0.0183493960854;-1
75_104=0.0419529;0.0826898230595;-1
75_114=0.0318077;0.173954152814;-1
75_124=0.0566956;0.0434885382036;-1
75_74=0.0395402;0.060858061945;-1
75_85=0.0371611;0.045466289298;-1
75_95=0.0488549;0.0212958855;-1
76_105=0.129894;0.155936235117;-1
76_115=0.127813;0.270089481964;-1
76_125=0.142147;0.109949874283;-1
76_77=0.15197;0.0425531914894;-1
76_87=0.167283;0.191530117127;-1
76_97=0.0115794;-0.0230632802007;-1
77_107=0.216914;0.155936235117;-1
77_117=-0.10617;-0.25264557632;-1
77_127=0.304349;0.416757118565;-1
77_80=0.0719071;-0.0208378559283;-1
77_90=0.0991892;0.0879598994267;-1
78_100=0.164578;0.0989759478081;-1
78_110=0.0868264;0.285896675957;-1
78_120=0.140244;0.280744962537;-1
78_130=0.140244;0.540649168738;-1
78_84=0.168058;0.0885267789746;-1
78_94=0.0817277;0.0708214231797;-1
79_104=0.00131836;0.0;-1
79_114=0.0160504;0.119900284428;-1
79_124=-0.025019;-0.0479601137711;-1
79_78=0.062527;0.0647599337665;-1
79_89=0.0573316;0.0263249063246;-1
79_99=0.00273674;-0.0277885007188;-1
7_108=0.11377;0.150755672289;-1
7_117=0.00365051;0.0240562612162;-1
7_126=0.103657;0.0238095238095;-1
7_15=0.0961799;0.224733287488;-1
7_25=0.144184;0.145864991498;-1
7_35=0.135855;0.180020574956;-1
7_45=0.0974132;-0.0471404520791;-1
7_55=0.0703644;-0.0243108319163;-1
7_64=0.11446;0.0457868546496;-1
7_74=0.114221;0.0907218423253;-1
7_83=0.0938695;0.0729324957489;-1
7_92=0.111897;0.140028008403;-1
80_102=0.0825104;0.129219147676;-1
80_112=0.0775113;0.160032009603;-1
80_122=0.0730111;0.215852314777;-1
80_132=0.0799351;0.261904761905;-1
80_88=0.0657785;-0.0446210748253;-1
80_98=0.0599835;0.0;-1
81_108=0.0323983;0.143606739476;-1
81_118=0.0167075;0.178647400253;-1
81_128=-0.0311297;0.180020574956;-1
81_85=0.0420803;0.103762134394;-1
81_95=0.0451277;0.213844342624;-1
82_105=0.111732;0.0398409536445;-1
82_115=0.111732;0.32203059436;-1
82_125=0.111732;0.0898933149951;-1
82_83=0.111732;0.304419767425;-1
82_93=0.111732;0.150616019019;-1
83_103=-0.0316713;0.0212765957447;-1
83_113=0.132117;0.0922531208029;-1
83_123=0.0394126;0.0396994222784;-1
83_133=0.200024;0.137679020089;-1
83_92=0.0131839;-0.102125921276;-1
84_102=0.187535;0.0609836721136;-1
84_112=0.0524626;0.0944068640062;-1
84_122=0.0678743;0.0555650839932;-1
84_132=0.0216923;0.0674199862463;-1
84_92=0.0325988;0.0;-1
85_102=0.128488;0.137940146962;-1
85_112=0.0137885;0.0640622132638;-1
85_122=0.0189839;0.0628418688668;-1
85_132=0.00817775;0.101665713555;-1
85_93=0.109048;0.0660338179744;-1
86_103=0.187992;0.153929823997;-1
86_113=0.105305;0.0953462589246;-1
86_123=0.193259;0.328243975945;-1
86_133=0.1059;0.0813115628182;-1
86_95=0.175584;0.0861460984508;-1
87_105=0.251147;0.315838082855;-1
87_115=0.256723;0.263393292004;-1
87_125=0.263711;0.0791807582465;-1
87_88=0.232569;0.225572815379;-1
87_98=0.239283;0.210558721903;-1
88_108=0.195603;0.211896724207;-1
88_118=0.159265;0.205022560051;-1
88_128=0.0961073;0.0885422004151;-1
88_92=0.0492562;-0.021868700842;-1
89_102=0.151721;0.120701137396;-1
89_112=0.134777;0.112112132333;-1
89_122=0.125552;0.0;-1
89_132=0.181147;0.0533760512684;-1
89_97=0.076597;-0.0506369683542;-1
8_106=0.201494;0.151185789204;-1
8_115=0.200011;0.156492159287;-1
8_124=0.11538;0.0986227345443;-1
8_133=0.189582;0.273505383503;-1
8_23=0.188166;0.243975018237;-1
8_33=0.20422;0.134332098852;-1
8_43=0.207897;0.208963557096;-1
8_53=0.185033;0.149533435884;-1
8_63=0.124884;0.313914437471;-1
8_72=-0.0444025;-0.156492159287;-1
8_82=0.199792;0.226778683806;-1
8_91=-0.0238738;-0.0717137165601;-1
90_101=0.112259;-0.0489115988045;-1
90_111=0.148167;0.0870388279778;-1
90_121=0.155677;0.0229900244936;-1
90_131=0.106643;0.120873444604;-1
90_97=0.03867;-0.0238365647311;-1
91_107=-0.0301248;0.0566946709514;-1
91_117=0.0149186;-0.0204124145232;-1
91_127=0.0484629;0.0606091526731;-1
91_94=0.0502153;0.0381385035698;-1
92_104=0.0757647;-0.155347127476;-1
92_114=0.0669341;-0.0817007370206;-1
92_124=0.0927684;0.224677026807;-1
92_91=0.114594;0.237635410314;-1
93_102=0.165028;0.152317948961;-1
93_112=0.0894194;0.0202113020864;-1
93_122=0.0809354;0.019826289643;-1
93_132=0.0733291;-0.0481125224325;-1
94_101=0.100068;0.043747863926;-1
94_111=0.12953;0.136237315228;-1
94_121=0.165792;0.185066127259;-1
94_131=0.111388;0.144149994031;-1
95_101=0.239472;0.0463489774659;-1
95_111=0.242848;0.247435829653;-1
95_121=0.320108;0.130713060285;-1
95_131=0.122035;0.209990975788;-1
96_102=0.183961;0.269013793424;-1
96_112=0.0574964;0.0;-1
96_122=0.0754225;0.111414129455;-1
96_132=0.0831011;-0.0811107105654;-1
97_104=0.0334059;0.0877058019307;-1
97_114=0.0237532;0.0230632802007;-1
97_124=-0.0110091;0.0461265604014;-1
97_96=0.0476962;0.205195670417;-1
98_107=0.218948;0.142857142857;-1
98_117=-0.0538321;-0.0578637562358;-1
98_127=0.277667;0.152720709664;-1
99_101=0.0939478;0.219363398843;-1
99_111=0.0939478;0.268372520061;-1
99_121=0.0939478;0.077330889334;-1
99_131=0.0939478;0.135526185436;-1
9_105=0.116478;0.226816177182;-1
9_114=0.116478;0.337611852455;-1
9_123=0.116478;0.0;-1
9_132=0.116478;0.0257172249937;-1
9_22=0.116478;0.172958173888;-1
9_32=0.116478;-0.0697863157799;-1
9_42=0.116478;0.068252363279;-1
9_52=0.116478;0.0416125189288;-1
9_62=0.116478;0.0668153104781;-1
9_72=0.116478;-0.119047619048;-1
9_81=0.116478;0.209980262783;-1
9_91=0.116478;0.0872871560944;-1
100_102=0.156834;0.136363636364;-1
100_112=0.0528774;-0.0422200330921;-1
100_122=0.057235;-0.0414157683281;-1
100_132=0.0243814;-0.050251890763;-1
101_108=0.208323;0.317925392229;-1
101_118=0.204321;0.11831213107;-1
101_128=0.161584;0.0306569669742;-1
102_106=0.120132;0.17978662999;-1
102_116=0.125923;0.205152484966;-1
102_126=0.120502;0.129219147676;-1
103_105=-0.00175445;-0.136444205727;-1
103_115=-0.0219224;-0.067522370491;-1
103_125=-0.0229985;-0.0879598994267;-1
104_105=0.084816;0.148249863332;-1
104_115=0.099736;0.128388147753;-1
104_125=0.0793734;0.0836242010007;-1
105_106=0.228422;0.418330013267;-1
105_116=0.24438;0.20003306605;-1
105_126=0.218655;0.209990975788;-1
106_108=0.139446;0.449466574975;-1
106_118=0.139446;0.173954152814;-1
106_128=0.139446;0.225374467928;-1
107_111=0.217519;0.0964395937263;-1
107_121=0.255273;0.305677179727;-1
107_131=0.0869567;0.160714285714;-1
108_115=0.242129;0.16283473682;-1
108_125=0.235632;0.227272727273;-1
109_110=0.0862371;0.0377425678048;-1
109_120=0.139658;0.185312329165;-1
109_130=0.139658;0.0211477467219;-1
10_106=0.264748;0.279372118308;-1
10_115=0.261721;0.144588807814;-1
10_124=0.0670007;0.159461991151;-1
10_133=0.293229;0.168467726057;-1
10_23=0.264068;0.247959149534;-1
10_33=0.246417;0.248228641135;-1
10_43=0.276915;0.21452116007;-1
10_53=0.265366;0.414478169153;-1
10_63=0.174173;0.200794836714;-1
10_73=0.247432;0.13251783129;-1
10_83=0.264068;0.205022560051;-1
10_92=0.122511;-0.0437374016841;-1
110_112=0.107818;0.171498585143;-1
110_122=0.104181;0.280386077046;-1
110_132=0.114416;0.0907218423253;-1
111_119=0.134516;0.260208249933;-1
111_129=0.100496;0.104166666667;-1
112_117=0.00258127;0.262746927123;-1
112_127=0.0969682;0.0600120036012;-1
113_116=0.126237;0.19364916731;-1
113_126=0.0998911;0.203289278154;-1
114_116=0.18064;0.218346822531;-1
114_126=0.160186;0.0208378559283;-1
115_117=0.11962;-0.0668153104781;-1
115_127=0.11962;0.19839002138;-1
116_119=0.141963;0.0377425678048;-1
116_129=0.218029;0.0982092751648;-1
117_122=0.0321232;0.138784027501;-1
117_132=0.0452678;0.144337567297;-1
118_126=0.220553;0.229216415211;-1
119_121=0.18293;0.126886480331;-1
119_131=0.145647;0.277968493748;-1
11_106=0.176791;0.138013111868;-1
11_116=0.197224;0.188982236505;-1
11_125=0.153661;0.18609684208;-1
11_14=0.149738;0.146986183948;-1
11_24=0.194402;0.341261816395;-1
11_34=0.135421;0.134303827338;-1
11_44=0.102159;0.0855920985022;-1
11_54=0.13954;0.154303349962;-1
11_64=0.197611;0.27553753721;-1
11_74=0.179987;0.230978289061;-1
11_84=0.156579;0.104031297322;-1
11_94=0.0633013;0.166450075715;-1
120_124=0.119616;0.0194920293896;-1
121_120=0.211814;0.326055658376;-1
121_131=0.117587;-0.0611354359454;-1
122_129=0.117555;0.0;-1
123_128=0.119602;0.0514344499874;-1
124_128=0.130286;0.027565892321;-1
125_129=0.239827;0.435194139889;-1
126_131=0.151838;-0.019090088708;-1
128_127=0.244901;0.269974623578;-1
129_133=0.191924;0.506024313705;-1
12_109=-0.0806092;0.0196116135138;-1
12_118=-0.081308;-0.247541099102;-1
12_128=-0.0446717;-0.133630620956;-1
12_17=-0.0947031;-0.129399327844;-1
12_27=-0.0585743;-0.0412568498504;-1
12_37=-0.0342266;0.0;-1
12_47=0.0229459;-0.105409255339;-1
12_57=-0.061153;-0.0762000762001;-1
12_67=-0.0297589;-0.0625543242171;-1
12_77=-0.0831753;-0.144398974476;-1
12_87=-0.0704885;-0.204264871995;-1
12_97=-0.00356684;-0.0894427191;-1
132_131=0.125808;0.155902391116;-1
13_108=0.227232;0.25;-1
13_118=0.270746;0.219899748567;-1
13_127=0.285192;0.23690177074;-1
13_17=0.215857;0.252890269429;-1
13_27=0.258545;0.32984962285;-1
13_37=0.218145;0.213200716356;-1
13_47=0.109705;0.247206616237;-1
13_57=0.197551;0.379071252752;-1
13_67=0.182458;0.0666831336712;-1
13_77=0.256836;0.39581954742;-1
13_87=0.25228;0.257337464301;-1
13_97=0.0643599;0.0476731294623;-1
14_107=0.142977;0.163663417677;-1
14_117=-0.0798273;0.0392837100659;-1
14_127=0.21174;0.155523158272;-1
14_17=0.147194;0.249029122546;-1
14_27=0.180301;0.23819653367;-1
14_37=0.216357;0.153960071784;-1
14_47=0.148296;0.0405720412967;-1
14_57=0.144336;0.0;-1
14_67=0.0975491;0.0802572353905;-1
14_77=0.15989;0.218346822531;-1
14_87=0.176407;0.142948337978;-1
14_97=0.0705551;0.0;-1
15_107=0.247019;0.288299988063;-1
15_117=-0.0810418;-0.0973123680202;-1
15_127=0.317347;0.481571330331;-1
15_18=0.272899;0.346872967547;-1
15_28=0.29008;0.419523539268;-1
15_38=0.258744;0.288178214039;-1
15_48=0.175529;0.253012156852;-1
15_58=0.254459;0.140705294136;-1
15_68=0.226281;0.224387277602;-1
15_78=0.264014;0.389517827488;-1
15_88=0.259578;0.105292328786;-1
15_98=0.245595;0.0900937462696;-1
16_108=0.104719;0.0919600979743;-1
16_118=0.106763;0.17795362132;-1
16_128=0.0960412;0.0288195208852;-1
16_20=0.123301;0.100282442113;-1
16_30=0.103217;0.197908278398;-1
16_40=0.115041;0.0646996639221;-1
16_50=0.113167;0.121998856266;-1
16_60=0.126178;0.302325581395;-1
16_70=0.109152;0.146515887152;-1
16_80=0.0947022;0.0871420401901;-1
16_90=0.142742;0.160930171455;-1
17_100=0.221794;0.183920195949;-1
17_110=0.114312;0.145266988152;-1
17_120=0.203957;0.163027829188;-1
17_130=0.203957;0.139534883721;-1
17_23=0.240523;0.110056363291;-1
17_33=0.233552;0.201989290812;-1
17_43=0.253764;0.230420185845;-1
17_53=0.252612;0.134908125124;-1
17_63=0.240264;0.108927550238;-1
17_73=0.222397;0.30193176497;-1
17_83=0.242643;0.31141883731;-1
17_93=0.204268;0.24212399924;-1
18_103=0.108577;-0.0500312793274;-1
18_113=0.156092;0.0542326144547;-1
18_123=0.0820677;0.210042012604;-1
18_133=0.171514;0.138749187019;-1
18_27=0.163408;0.300187675965;-1
18_37=0.20085;0.26678918754;-1
18_47=0.165116;0.204523997026;-1
18_57=0.114337;0.123208220727;-1
18_67=0.173428;0.0758582606136;-1
18_77=0.244416;0.400250234619;-1
18_87=0.167082;0.157632072189;-1
18_97=0.124609;-0.108465228909;-1
19_107=0.107132;0.0626087903347;-1
19_117=-0.019966;0.1352504452;-1
19_127=0.199556;0.178484299301;-1
19_22=0.141141;0.12503908082;-1
19_32=0.101839;0.141264482804;-1
19_42=0.158081;0.0460531299059;-1
19_52=0.165646;0.126350794543;-1
19_62=0.118106;0.0450834817334;-1
19_72=0.104744;-0.0481962692712;-1
19_82=0.158608;0.116405049295;-1
19_92=0.159493;0.021868700842;-1
1_101=0.0201312;0.0489115988045;-1
1_110=0.156128;0.102576242483;-1
1_12=0.0986369;0.0639602149067;-1
1_129=-2.58375e-05;0.0652791209834;-1
1_18=0.0353549;0.0517087689995;-1
1_27=0.0698174;-0.0439799497134;-1
1_36=0.0861583;0.244557994022;-1
1_45=0.10156;0.0852802865422;-1
1_54=0.0272034;0.193828721514;-1
1_63=0.0404543;0.107682623063;-1
1_72=0.0901012;-0.0465242105199;-1
1_81=0.0996973;-0.0410304969931;-1
1_90=0.139829;0.0681818181818;-1
20_100=0.262981;0.148704479129;-1
20_110=0.11882;0.0;-1
20_120=0.237946;0.219687387582;-1
20_130=0.237946;0.225635494754;-1
20_26=0.266303;0.213560549044;-1
20_36=0.295184;0.266690373531;-1
20_46=0.142796;0.305673507907;-1
20_56=0.243008;0.0484786165564;-1
20_66=0.170929;0.133345186766;-1
20_76=0.144169;0.0959202275422;-1
20_86=0.087614;0.0991363194193;-1
20_96=0.268258;0.373366522944;-1
21_106=0.142603;0.304419767425;-1
21_116=0.142603;0.23819653367;-1
21_126=0.142603;0.333405694852;-1
21_23=0.142603;0.25264557632;-1
21_33=0.142603;0.231843481202;-1
21_43=0.142603;0.280505364895;-1
21_53=0.142603;0.408625773938;-1
21_63=0.142603;0.0833514237131;-1
21_73=0.142603;0.185655824327;-1
21_83=0.142603;0.255319148936;-1
21_93=0.142603;0.18948418224;-1
22_103=-0.00375629;-0.0467141835867;-1
22_113=0.0933617;0.253184841771;-1
22_123=0.076489;0.0871627267281;-1
22_133=0.212974;0.129550055126;-1
22_31=0.000443876;-0.133234677505;-1
22_41=0.1959;0.219952935107;-1
22_51=0.234125;0.156956985266;-1
22_61=0.0888141;0.0724206824378;-1
22_71=0.152938;0.0228754505436;-1
22_81=0.0740325;-0.043581363364;-1
22_91=0.00777212;-0.135873244097;-1
23_101=0.1251;0.0936585811582;-1
23_111=0.153409;-0.0833333333333;-1
23_121=0.158042;0.154078908607;-1
23_131=0.119905;-0.0192879187453;-1
23_30=0.13432;0.0702439358686;-1
23_40=0.146369;0.102062072616;-1
23_50=0.14442;0.173205080757;-1
23_60=0.157336;0.110056363291;-1
23_70=0.140345;0.138675049056;-1
23_80=0.0509031;0.0206196524711;-1
23_90=0.0715174;-0.0652791209834;-1
24_100=0.20223;0.333415668356;-1
24_110=0.0964753;0.0401286176953;-1
24_120=0.161235;0.0985138007799;-1
24_130=0.161235;0.0224846875207;-1
24_30=0.240929;0.358773654926;-1
24_40=0.225065;0.229365855463;-1
24_50=0.235256;0.117953564924;-1
24_60=0.280064;0.404724375372;-1
24_70=0.221959;0.212486474092;-1
24_80=0.0331245;0.0842525463742;-1
24_90=0.0818239;-0.0444554224474;-1
25_100=0.241454;0.285869673137;-1
25_110=0.0944034;-0.0396994222784;-1
25_120=0.198836;0.116952176338;-1
25_130=0.198836;0.155709418655;-1
25_31=0.0149897;-0.0202278348516;-1
25_41=0.262439;0.280505364895;-1
25_51=0.298143;0.204251842551;-1
25_61=0.115488;0.109949874283;-1
25_71=0.191239;0.187540703354;-1
25_81=0.0793075;0.119098266835;-1
25_91=0.0180825;0.0618852747755;-1
26_101=0.222732;0.117073226448;-1
26_111=0.243025;0.270833333333;-1
26_121=0.291841;0.176090181265;-1
26_131=0.11087;0.135015431217;-1
26_33=0.260403;0.210297756048;-1
26_43=0.253628;0.376699503216;-1
26_53=0.262337;0.255376959228;-1
26_63=0.240732;0.18557687224;-1
26_73=0.222273;0.183711730709;-1
26_83=0.242509;0.18948418224;-1
26_93=0.205488;0.0625;-1
27_103=0.158264;0.0;-1
27_113=0.158264;0.0;-1
27_123=0.158264;0.0793988445567;-1
27_133=0.158264;0.236021177295;-1
27_36=0.158264;0.189299409712;-1
27_46=0.158264;-0.0246556836361;-1
27_56=0.158264;0.0645198590429;-1
27_66=0.158264;0.047324852428;-1
27_76=0.158264;0.063829787234;-1
27_86=0.158264;0.0439799497134;-1
27_96=0.158264;0.260286688354;-1
28_106=0.262097;0.210818510678;-1
28_116=0.282501;0.250185116649;-1
28_126=0.262029;0.242436610693;-1
28_30=0.261408;0.183532587096;-1
28_40=0.265175;0.12;-1
28_50=0.199407;0.282842712475;-1
28_60=0.284442;0.30193176497;-1
28_70=0.281906;0.339683110243;-1
28_80=0.0443585;0.0606091526731;-1
28_90=0.0613471;0.127920429813;-1
29_100=0.103909;0.11877113737;-1
29_110=0.103909;0.0714741689892;-1
29_120=0.103909;0.175465601586;-1
29_130=0.103909;0.220264476152;-1
29_35=0.103909;0.101305112309;-1
29_45=0.103909;0.0742781352708;-1
29_55=0.103909;0.0191530117127;-1
29_65=0.103909;0.280744962537;-1
29_75=0.103909;0.0391480146343;-1
29_85=0.103909;-0.0600721298597;-1
29_95=0.103909;0.243854803882;-1
2_103=0.134826;0.0625135677848;-1
2_112=0.130252;0.120024007202;-1
2_121=0.168204;0.26142612057;-1
2_130=0.163805;0.239640610523;-1
2_20=0.157662;0.117427848075;-1
2_3=0.136908;0.277350098113;-1
2_39=0.107698;0.178484299301;-1
2_48=0.110842;-0.0618589574132;-1
2_57=0.142009;0.0256579002895;-1
2_66=0.16963;0.208570398597;-1
2_75=0.1315;0.1490711985;-1
2_84=0.124384;0.0385257064265;-1
2_93=0.13341;0.123717914826;-1
30_103=0.108195;0.11831213107;-1
30_113=0.15013;0.179546211615;-1
30_123=0.0817675;0.176604314275;-1
30_133=0.162696;0.087495727852;-1
30_39=0.144553;0.152008377581;-1
30_49=0.16474;0.0639021484263;-1
30_59=0.142944;-0.0259762166733;-1
30_69=0.183736;0.243332131696;-1
30_79=0.0220492;0.0533380747063;-1
30_89=0.158651;0.15585730004;-1
30_99=0.16474;0.191942973987;-1
31_109=-0.0805956;0.115384615385;-1
31_119=-0.0116644;0.0769230769231;-1
31_129=-0.0792062;-0.220176211482;-1
31_36=-0.0269032;-0.0674881905999;-1
31_46=-0.00195139;-0.0468807230938;-1
31_56=-0.0841272;-0.102232602514;-1
31_66=-0.0121337;0.0;-1
31_76=-0.0227679;-0.101139174258;-1
31_86=0.0513902;0.167248402001;-1
31_96=-0.0515386;-0.0674881905999;-1
32_106=0.153603;0.17978662999;-1
32_116=0.173974;0.102576242483;-1
32_126=0.153609;0.23690177074;-1
32_34=0.135932;0.0262431940541;-1
32_44=0.145508;0.167248402001;-1
32_54=0.171059;0.23690177074;-1
32_64=0.185594;0.207078841641;-1
32_74=0.157088;0.0410304969931;-1
32_84=0.133459;-0.0406557814091;-1
32_94=0.118957;-0.142295234932;-1
33_104=0.210014;0.220415507511;-1
33_114=0.186559;0.251163771303;-1
33_124=0.111475;0.0772811604008;-1
33_32=0.180989;0.179712689362;-1
33_43=0.232481;0.127356958074;-1
33_53=0.221676;0.410112447604;-1
33_63=0.219648;0.0567656724456;-1
33_73=0.201172;0.243512311011;-1
33_83=0.22142;0.231843481202;-1
33_93=0.185759;0.172061800403;-1
34_103=0.119633;-0.101567343224;-1
34_113=0.119633;0.0;-1
34_123=0.119633;0.0;-1
34_133=0.119633;0.164308384385;-1
34_43=0.119633;0.239114049929;-1
34_53=0.119633;0.102665400468;-1
34_63=0.119633;0.149209419391;-1
34_73=0.119633;0.172328087371;-1
34_83=0.119633;0.25391835806;-1
34_93=0.119633;0.100503781526;-1
35_103=0.0540166;0.0450149136606;-1
35_113=0.12462;0.268372520061;-1
35_123=0.128909;0.0419960525566;-1
35_133=0.203457;0.104031297322;-1
35_44=0.157805;0.0641940738766;-1
35_54=0.181297;0.19839002138;-1
35_64=0.186429;0.2119519517;-1
35_74=0.184097;0.272974341618;-1
35_84=0.159866;0.228868854109;-1
35_94=0.134733;-0.0624187783932;-1
36_104=0.205347;0.157472444733;-1
36_114=0.20676;0.189299409712;-1
36_124=0.0457012;0.047324852428;-1
36_35=0.257729;0.400500939457;-1
36_46=0.108659;0.191942973987;-1
36_56=0.205689;0.287018923941;-1
36_66=0.136408;0.263157894737;-1
36_76=0.109859;0.260286688354;-1
36_86=0.053645;-0.0978231976089;-1
36_96=0.23088;0.447368421053;-1
37_106=0.173294;0.105409255339;-1
37_116=0.194822;0.173205080757;-1
37_126=0.174673;0.242436610693;-1
37_39=0.169131;0.110431526075;-1
37_49=0.139653;0.111417202906;-1
37_59=0.06978;0.0679366220487;-1
37_69=0.213904;0.259272486435;-1
37_79=0.0542268;0.0464990554975;-1
37_89=0.153742;0.271746488195;-1
37_99=0.138015;0.0478091443734;-1
38_109=0.188097;0.227980376294;-1
38_119=0.118454;0.159586263406;-1
38_129=0.178029;0.0949157995752;-1
38_43=0.245987;0.180655500871;-1
38_53=0.207815;0.315111007616;-1
38_63=0.215699;0.0469711392301;-1
38_73=0.203126;0.209245749739;-1
38_83=0.221432;0.21582051197;-1
38_93=0.106386;0.118644749469;-1
39_103=0.0150406;-0.1366817067;-1
39_113=0.110773;0.123466199581;-1
39_123=0.0540116;0.0212525571021;-1
39_133=0.193859;0.0631753972714;-1
39_48=0.128558;0.1352504452;-1
39_58=0.193769;0.186248078872;-1
39_68=0.151276;0.194916636821;-1
39_78=0.195875;0.205066195799;-1
39_88=0.173481;0.170731707317;-1
39_98=0.173179;0.271304758117;-1
3_107=0.231516;0.296499726664;-1
3_116=0.259576;0.207584122927;-1
3_125=0.211371;0.209060502502;-1
3_14=0.144752;0.0754851356096;-1
3_23=0.238724;0.100080096128;-1
3_33=0.221007;0.385727138145;-1
3_42=0.199796;0.204465205027;-1
3_51=0.278425;0.252439082149;-1
3_60=0.26237;0.253772960663;-1
3_7=0.202969;0.0924500327042;-1
3_79=0.0377418;0.0455960752588;-1
3_88=0.219839;0.151601828638;-1
3_97=0.066138;0.0219264504827;-1
40_107=0.155267;0.283473354757;-1
40_117=-0.108204;-0.163299316186;-1
40_127=0.244919;0.161624407128;-1
40_43=0.198343;0.194257172471;-1
40_53=0.188541;0.166811531246;-1
40_63=0.175137;0.0808122035642;-1
40_73=0.162184;0.28;-1
40_83=0.182417;0.371311648653;-1
40_93=0.144081;0.244948974278;-1
41_103=0.0264812;-0.0801443899701;-1
41_113=0.130134;0.195467509243;-1
41_123=0.106532;-0.0186924051364;-1
41_133=0.260085;0.0740867786577;-1
41_50=0.253882;0.192304789528;-1
41_60=0.264063;0.251367475467;-1
41_70=0.241204;0.263943522129;-1
41_80=0.0600186;0.0;-1
41_90=0.0995609;0.0;-1
42_100=0.224293;0.244504823461;-1
42_110=0.0541204;-0.0200643088476;-1
42_120=0.192962;0.157622081248;-1
42_130=0.192962;0.224846875207;-1
42_48=0.100086;-0.021281413269;-1
42_58=0.250835;0.197814142019;-1
42_68=0.188694;0.184018684525;-1
42_78=0.248494;0.212960850482;-1
42_88=0.226633;0.16118595467;-1
42_98=0.227091;0.118216560936;-1
43_108=0.260432;0.144955189148;-1
43_118=0.261677;0.200360974925;-1
43_128=0.166015;0.155752239495;-1
43_47=0.113729;0.225241542839;-1
43_57=0.196992;0.197365484597;-1
43_67=0.179048;0.0810108409885;-1
43_77=0.258388;0.280505364895;-1
43_87=0.27136;0.342690187686;-1
43_97=0.0815548;-0.108593060691;-1
44_107=0.0974952;0.111187397499;-1
44_117=-0.0225752;0.0;-1
44_127=0.145139;0.297160819406;-1
44_47=0.099512;-0.0413449115297;-1
44_57=0.106674;0.124533870347;-1
44_67=0.0843275;0.22491172553;-1
44_77=0.106361;0.161822678813;-1
44_87=0.122315;0.0182089260182;-1
44_97=0.0406218;0.0877058019307;-1
45_107=0.0128558;-0.113389341903;-1
45_117=0.0392655;-0.0408248290464;-1
45_127=0.0447372;-0.0606091526731;-1
45_48=0.0368471;0.0;-1
45_58=0.0584572;0.105409255339;-1
45_68=0.0247971;0.0588348405415;-1
45_78=0.0508346;0.111417202906;-1
45_88=0.0819135;0.0;-1
45_98=0.0084687;-0.0944911182523;-1
46_108=0.119424;0.101929438288;-1
46_118=0.119424;0.271212519997;-1
46_128=0.119424;0.0;-1
46_50=0.119424;0.135224680757;-1
46_60=0.119424;0.283546594225;-1
46_70=0.119424;0.243599382882;-1
46_80=0.119424;0.169030850946;-1
46_90=0.119424;0.0764470787156;-1
47_100=0.0873028;0.202259958739;-1
47_110=0.128961;-0.101430103242;-1
47_120=0.0767801;0.0199204768222;-1
47_130=0.0767801;0.159132012543;-1
47_53=0.104837;0.109896745566;-1
47_63=0.106464;0.212958855;-1
47_73=0.08786;0.0632455532034;-1
47_83=0.108203;0.173954152814;-1
47_93=0.0699196;0.0215165741456;-1
48_103=0.0740599;-0.12632278816;-1
48_113=0.0225739;-0.0228217732294;-1
48_123=0.109497;0.176776695297;-1
48_133=0.0402712;0.0973123680202;-1
48_57=-0.00171546;0.0;-1
48_67=-0.0232003;-0.0425628265379;-1
48_77=0.0202795;0.0210537980267;-1
48_87=0.045339;0.0758098043579;-1
48_97=0.0816343;0.0684653196881;-1
49_107=-0.0351016;-0.0877328007929;-1
49_117=0.0386503;0.170572059805;-1
49_127=0.0587155;-0.0562741855113;-1
49_52=0.0645191;-0.123937490564;-1
49_62=0.0113513;0.0758098043579;-1
49_72=0.0839308;0.182349202156;-1
49_82=0.0169499;-0.0391480146343;-1
49_92=0.0993983;0.147092626271;-1
4_101=0.138462;0.0978231976089;-1
4_110=0.138462;0.102576242483;-1
4_12=0.138462;-0.106600358178;-1
4_129=0.138462;0.0;-1
4_18=0.138462;0.206835075998;-1
4_28=0.138462;0.127920429813;-1
4_37=0.138462;0.106600358178;-1
4_47=0.138462;0.112366643744;-1
4_56=0.138462;0.133366267342;-1
4_65=0.138462;0.0604367223019;-1
4_74=0.138462;0.0820609939862;-1
4_83=0.138462;0.175919798853;-1
4_92=0.138462;0.021110016546;-1
50_102=0.150486;0.180906806747;-1
50_112=0.150486;0.0840168050417;-1
50_122=0.150486;0.192304789528;-1
50_132=0.150486;0.0666666666667;-1
50_58=0.150486;0.4173993558;-1
50_68=0.150486;0.138675049056;-1
50_78=0.150486;0.393919298579;-1
50_88=0.150486;0.0624695047554;-1
50_98=0.150486;0.0801783725737;-1
51_108=0.276975;0.232210182006;-1
51_118=0.278272;0.367653316593;-1
51_128=0.197033;0.132314031006;-1
51_55=0.18948;0.204251842551;-1
51_65=0.264943;0.280680445712;-1
51_75=0.175314;0.0417482860723;-1
51_85=0.272664;0.128124426528;-1
51_95=0.276968;0.300060018006;-1
52_105=0.113221;0.126131244777;-1
52_115=0.113221;0.124837556786;-1
52_125=0.113221;0.0406557814091;-1
52_53=0.113221;0.0994053465609;-1
52_63=0.113221;0.134839972493;-1
52_73=0.113221;0.133484762494;-1
52_83=0.113221;0.177015882971;-1
52_93=0.113221;0.116774841624;-1
53_103=0.0382139;0.0430132393619;-1
53_113=0.15456;0.209813581854;-1
53_123=0.11833;0.140450161933;-1
53_133=0.262444;0.337978178307;-1
53_62=0.221392;0.21281413269;-1
53_72=0.0519557;0.0455015755193;-1
53_82=0.259438;0.263752189358;-1
53_92=0.101261;0.0619380104261;-1
54_102=0.157203;0.107682623063;-1
54_112=0.128322;0.0200040012004;-1
54_122=0.105622;0.0392458754139;-1
54_132=0.115312;0.0714285714286;-1
54_62=0.138861;0.103098262355;-1
54_72=0.114665;0.0661300071266;-1
54_82=0.130826;0.2342547405;-1
54_92=0.147475;0.100020006002;-1
55_102=0.125314;0.0879598994267;-1
55_112=0.0494645;-0.0408503685103;-1
55_122=0.046689;0.120216584955;-1
55_132=0.0518543;-0.0486216638326;-1
55_63=0.103446;0.0208378559283;-1
55_73=0.0843302;0.0618852747755;-1
55_83=0.106272;0.0851063829787;-1
55_93=0.0851387;0.0842151921067;-1
56_103=0.0261782;-0.021506619681;-1
56_113=0.0884212;0.093250480824;-1
56_123=0.106383;-0.0802572353905;-1
56_133=0.182523;0.238572831746;-1
56_65=0.145601;0.236433121872;-1
56_75=0.10824;0.0879173964528;-1
56_85=0.147271;0.0449693750413;-1
56_95=0.164224;0.29488391231;-1
57_105=0.161455;0.0480015360737;-1
57_115=0.148984;0.221709598189;-1
57_125=0.139528;0.0;-1
57_58=0.160037;0.0803219328902;-1
57_68=0.182602;0.224160966624;-1
57_78=0.166076;0.25941664685;-1
57_88=0.140416;0.364645263745;-1
57_98=0.180881;0.144004608221;-1
58_108=0.190354;0.269679944985;-1
58_118=0.192716;0.152209883712;-1
58_128=0.126399;0.197202659437;-1
58_62=0.145435;0.107582870728;-1
58_72=0.0496293;0.16101529718;-1
58_82=0.190972;0.177777777778;-1
58_92=0.0718444;0.104370715181;-1
59_102=0.0254049;0.0241402274793;-1
59_112=0.0193138;0.112112132333;-1
59_122=0.0193138;0.0659858805322;-1
59_132=0.0319021;-0.0266880256342;-1
59_67=0.0218658;-0.18887686586;-1
59_77=0.0303613;0.0;-1
59_87=0.025573;0.0630775700297;-1
59_97=0.0229082;0.126592420885;-1
5_106=0.078665;0.0421637021356;-1
5_115=0.0550122;-0.109108945118;-1
5_124=0.0864256;0.0825136997007;-1
5_133=0.0744349;0.0762770071396;-1
5_23=0.0725027;0.224536559755;-1
5_33=0.0500733;0.0561951486949;-1
5_42=0.0766209;0.0834057656228;-1
5_52=0.0468603;-0.0190692517849;-1
5_61=0.0996683;0.0213200716356;-1
5_70=0.0824663;-0.0452910813658;-1
5_8=0.138189;0.0956182887468;-1
5_89=0.0815492;-0.0226455406829;-1
5_98=0.0571287;-0.0944911182523;-1
60_108=0.247384;0.298870318417;-1
60_118=0.27755;0.244686229315;-1
60_128=0.176324;-0.0288195208852;-1
60_64=0.249703;0.1885256066;-1
60_74=0.24751;0.290533976304;-1
60_84=0.246644;0.0822516121153;-1
60_94=0.122301;0.102814515144;-1
61_104=0.0119163;0.0209060502502;-1
61_114=0.01148;0.109949874283;-1
61_124=0.0798233;-0.0219899748567;-1
61_60=0.0707885;0.0919600979743;-1
61_71=0.0400988;-0.0430730492254;-1
61_81=0.0844721;-0.0820609939862;-1
61_91=0.103138;0.106600358178;-1
62_101=0.150773;0.163902517027;-1
62_111=0.180385;0.166666666667;-1
62_121=0.182808;0.308157817214;-1
62_131=0.146062;0.0964395937263;-1
62_69=0.210787;0.216506350946;-1
62_79=0.0783391;0.0;-1
62_89=0.147081;0.161787557232;-1
62_99=0.139176;0.0243975018237;-1
63_109=0.128908;0.118864327763;-1
63_119=0.120599;0.118864327763;-1
63_129=0.165713;0.309294787066;-1
63_68=0.173903;0.079242885175;-1
63_78=0.212049;0.13130643286;-1
63_88=0.185993;0.111552687063;-1
63_98=0.195136;0.0954504435402;-1
64_108=0.240615;0.186370957477;-1
64_118=0.243314;0.180324877433;-1
64_128=0.188303;0.337463185573;-1
64_68=0.215756;0.057145448832;-1
64_78=0.245895;0.252508559348;-1
64_88=0.220376;0.257425392084;-1
64_98=0.230554;0.0734223098214;-1
65_108=0.254132;0.201455741006;-1
65_118=0.255998;0.448316675962;-1
65_128=0.182976;0.227284322524;-1
65_69=0.30422;0.200445931434;-1
65_79=0.0500146;-0.0878749550327;-1
65_89=0.122529;0.0855920985022;-1
65_99=0.229321;0.271052370872;-1
66_109=0.0711614;0.1349763812;-1
66_119=0.156034;0.224960635333;-1
66_129=0.0760401;0.0702439358686;-1
66_71=0.10736;0.0695234661989;-1
66_81=0.14073;0.0662266178533;-1
66_91=0.0833139;-0.0458831467741;-1
67_101=0.142001;0.14350946197;-1
67_111=0.162836;0.106407066345;-1
67_121=0.182791;0.0;-1
67_131=0.149237;0.275838642184;-1
67_74=0.175668;0.260836015019;-1
67_84=0.139958;0.17892962381;-1
67_94=0.14021;0.0596432079366;-1
68_104=0.124152;0.153846153846;-1
68_114=0.124393;0.283189687922;-1
68_124=0.0432189;0.0404556697031;-1
68_67=0.0976115;0.184018684525;-1
68_78=0.161783;0.200298186201;-1
68_88=0.140246;0.129944424547;-1
68_98=0.140657;0.129718630416;-1
69_108=0.268018;0.402015126104;-1
69_118=0.286437;0.388973310661;-1
69_128=0.194899;0.220479275922;-1
69_73=0.249623;0.117851130198;-1
69_83=0.270046;0.170175823414;-1
69_93=0.227297;0.144337567297;-1
6_102=0.125506;-0.0209060502502;-1
6_111=0.102699;0.260208249933;-1
6_120=0.0687285;0.0741249316661;-1
6_13=0.143978;0.125436301501;-1
6_19=0.0958336;0.0649722122736;-1
6_29=0.0779938;0.182089260182;-1
6_39=0.095532;0.151601828638;-1
6_49=0.0397828;0.0182089260182;-1
6_58=0.100043;0.0206724557649;-1
6_68=0.121171;0.115384615385;-1
6_77=0.100018;0.0606835045547;-1
6_86=0.0709354;0.0836242010007;-1
6_95=0.101507;0.118864327763;-1
70_105=0.25661;0.299572344758;-1
70_115=0.236538;0.197666484443;-1
70_125=0.233769;0.241402274793;-1
70_71=0.184522;0.411758109785;-1
70_81=0.0871283;0.021790681682;-1
70_91=0.0372989;0.113227703414;-1
71_101=0.137771;0.162221421131;-1
71_111=0.137771;0.226816177182;-1
71_121=0.137771;0.239640610523;-1
71_131=0.137771;0.0954504435402;-1
71_78=0.137771;0.0562741855113;-1
71_88=0.137771;0.111552687063;-1
71_98=0.137771;0.209990975788;-1
72_108=0.042282;0.02326210526;-1
72_118=0.0190976;-0.0450149136606;-1
72_128=0.0147706;0.174963553056;-1
72_76=-0.0181665;0.0450149136606;-1
72_86=0.0765364;0.18609684208;-1
72_96=0.0588398;-0.0750939261483;-1
73_106=0.225816;0.527046276695;-1
73_116=0.243772;0.346410161514;-1
73_126=0.224936;0.020203050891;-1
73_75=0.0905529;0.0210818510678;-1
73_85=0.216742;0.172532437126;-1
73_95=0.226824;0.121218305346;-1
74_105=0.257519;0.34551165954;-1
74_115=0.237279;0.272974341618;-1
74_125=0.239101;0.164121987972;-1
74_75=0.111571;0.060858061945;-1
74_85=0.230473;0.166019415031;-1
74_95=0.261536;0.252725132192;-1
75_105=0.0618235;0.0199204768222;-1
75_115=0.0463438;0.115010926557;-1
75_125=0.0391607;-0.0674199862463;-1
75_76=0.0543287;0.0869770764071;-1
75_86=0.111543;-0.0224733287488;-1
75_96=0.0891991;0.0967301666813;-1
76_106=0.117218;0.304419767425;-1
76_116=0.122285;0.178647400253;-1
76_126=0.0959026;0.0416757118565;-1
76_78=0.102656;0.0766120468508;-1
76_88=0.0777384;0.182242275601;-1
76_98=0.085043;0.175428264507;-1
77_108=0.218592;0.285869673137;-1
77_118=0.251941;0.297872340426;-1
77_128=0.165951;0.220527138568;-1
77_81=0.0682732;0.0198497111392;-1
77_91=0.00661914;-0.0206284249252;-1
78_101=0.182108;0.0213007161421;-1
78_111=0.20292;0.0947622554474;-1
78_121=0.222888;0.360432779158;-1
78_131=0.196048;0.315838082855;-1
78_85=0.177882;0.0800961731463;-1
78_95=0.164346;0.168822556534;-1
79_105=0.0233906;-0.153781171307;-1
79_115=0.0153795;0.0507346289432;-1
79_125=-0.00926242;0.0;-1
79_80=0.0938232;-0.0704567088452;-1
79_90=0.117045;0.0247840798548;-1
7_10=0.104334;0.182202722203;-1
7_109=0.0213805;0.0462250163521;-1
7_118=0.0730725;0.0729324957489;-1
7_127=0.130186;0.261904761905;-1
7_16=0.031041;-0.101665713555;-1
7_26=0.058109;0.0721687836487;-1
7_36=0.0877056;0.243332131696;-1
7_46=0.0947221;0.0563436169819;-1
7_56=0.0353775;0.0982946374366;-1
7_65=0.0508954;0.0890870806375;-1
7_75=0.11242;-0.02484519975;-1
7_84=0.0503587;0.0224733287488;-1
7_93=0.0595901;0.19245008973;-1
80_103=0.115367;0.104189279641;-1
80_113=0.0200596;0.135526185436;-1
80_123=0.130881;0.213844342624;-1
80_133=0.0855858;0.0770514128529;-1
80_89=0.0636638;0.205879054892;-1
80_99=0.0504205;-0.0965890576833;-1
81_109=-0.013037;0.0;-1
81_119=0.05453;-0.0377425678048;-1
81_129=-0.0156566;-0.0589255650989;-1
81_86=0.0666989;0.184637236469;-1
81_96=0.0454722;0.110377696422;-1
82_106=0.110264;0.0888888888889;-1
82_116=0.110264;0.426006433615;-1
82_126=0.110264;0.2768465115;-1
82_84=0.110264;0.120604537831;-1
82_94=0.110264;0.0201007563052;-1
83_104=0.12617;0.161822678813;-1
83_114=0.127466;0.255319148936;-1
83_124=0.00542531;0.106382978723;-1
83_82=0.162632;0.304419767425;-1
83_93=0.120584;0.168430384213;-1
84_103=0.0249588;-0.0786737257649;-1
84_113=0.127083;0.127920429813;-1
84_123=0.105216;0.0183493960854;-1
84_133=0.199862;0.381818181818;-1
84_93=0.146313;0.175162262436;-1
85_103=0.0453099;-0.04448840533;-1
85_113=0.0964904;0.120560705543;-1
85_123=0.109417;-0.0415048537576;-1
85_133=0.122414;0.102814515144;-1
85_94=0.0791181;0.123377418173;-1
86_104=0.0849456;0.0;-1
86_114=0.0359949;-0.0219899748567;-1
86_124=0.07903;0.0;-1
86_85=0.0520085;-0.0229900244936;-1
86_96=0.0922143;-0.0489115988045;-1
87_106=0.226487;0.41105415366;-1
87_116=0.244569;0.214422506968;-1
87_126=0.225602;0.13130643286;-1
87_89=0.120413;0.105129283383;-1
87_99=0.184691;0.332922571214;-1
88_109=0.148586;0.108287020456;-1
88_119=0.14913;0.216574040912;-1
88_129=0.152873;0.1352504452;-1
88_93=0.159732;0.180333926933;-1
89_103=0.0713542;0.186856734347;-1
89_113=0.122918;0.101273936708;-1
89_123=0.134808;0.21790681682;-1
89_133=0.129869;0.151141730981;-1
89_98=0.117883;0.128388147753;-1
8_107=0.198813;0.180701580581;-1
8_116=0.246331;0.207019667803;-1
8_125=0.210911;0.127411797859;-1
8_14=0.145726;0.115010926557;-1
8_24=0.249271;0.448600307651;-1
8_34=0.228515;0.323669437485;-1
8_44=0.0829549;0.0703210846408;-1
8_54=0.144563;0.0724417932624;-1
8_64=0.233886;0.325054422149;-1
8_73=0.200792;0.119522860933;-1
8_83=0.221048;0.221901152725;-1
8_92=0.0498932;-0.0710071602497;-1
90_102=0.110035;0.204545454545;-1
90_112=0.139433;0.10555008273;-1
90_122=0.173732;0.207078841641;-1
90_132=0.141507;0.0753778361444;-1
90_98=0.0594081;-0.0604367223019;-1
91_108=0.0205619;0.213200716356;-1
91_118=0.0222868;-0.185655824327;-1
91_128=0.0189768;-0.0801783725737;-1
91_95=0.021229;0.0;-1
92_105=0.0412768;-0.0374240594283;-1
92_115=0.0301232;0.0648203723552;-1
92_125=0.0188592;0.10555008273;-1
92_93=0.0040029;-0.0202113020864;-1
93_103=0.134851;0.0210537980267;-1
93_113=0.129061;-0.0228217732294;-1
93_123=0.118825;-0.019641855033;-1
93_133=0.193992;0.214087209644;-1
94_102=0.136638;0.101639453523;-1
94_112=0.0891608;-0.0188813728012;-1
94_122=0.0859868;0.148173557315;-1
94_132=0.0921876;0.0674199862463;-1
95_102=0.141591;0.0861460984508;-1
95_112=0.080303;0.0400080024008;-1
95_122=0.0741268;0.0784917508278;-1
95_132=0.0384445;0.119047619048;-1
96_103=0.00349424;-0.0946497048561;-1
96_113=0.133876;0.230845129219;-1
96_123=0.084006;0.176604314275;-1
96_133=0.30406;0.240613251593;-1
97_105=0.0605753;0.0633865691046;-1
97_115=0.0550161;0.0;-1
97_125=0.0213982;-0.0238365647311;-1
97_98=0.0368619;0.126773138209;-1
98_108=0.170144;0.181310166906;-1
98_118=0.154761;0.214412323286;-1
98_128=0.136955;0.0757614408414;-1
99_102=0.0865286;0.101929438288;-1
99_112=0.0865286;0.0236690534166;-1
99_122=0.0865286;0.0232181730106;-1
99_132=0.0865286;0.0563436169819;-1
9_106=0.119318;0.207019667803;-1
9_115=0.119318;0.0714285714286;-1
9_124=0.119318;0.247582025133;-1
9_133=0.119318;0.18725633518;-1
9_23=0.119318;0.0445435403187;-1
9_33=0.119318;0.204379779828;-1
9_43=0.119318;0.0635855855099;-1
9_53=0.119318;0.159255514318;-1
9_63=0.119318;0.154303349962;-1
9_73=0.119318;0.174574312189;-1
9_82=0.119318;0.115010926557;-1
9_92=0.119318;-0.0648203723552;-1
100_103=-0.00660523;-0.153929823997;-1
100_113=0.135094;0.21452908258;-1
100_123=0.0112265;-0.0205152484966;-1
100_133=0.199046;0.203278907045;-1
101_109=0.120791;0.1349763812;-1
101_119=0.157197;0.1349763812;-1
101_129=0.111553;0.117073226448;-1
102_107=0.110753;0.161164592805;-1
102_117=0.111327;0.0217597069945;-1
102_127=0.10865;0.193828721514;-1
103_106=0.0168191;-0.195698421916;-1
103_116=-0.00804685;-0.178647400253;-1
103_126=0.0468884;0.0;-1
104_106=0.131954;0.144707190354;-1
104_116=0.164969;0.113227703414;-1
104_126=0.184561;0.178296491644;-1
105_107=0.149757;0.410714285714;-1
105_117=-0.0281049;-0.173591268707;-1
105_127=0.211951;0.362711685453;-1
106_109=0.131072;0.103362278824;-1
106_119=0.131072;0.0413449115297;-1
106_129=0.131072;0.258198889747;-1
107_112=0.0496402;0.149696237713;-1
107_122=0.0777753;0.0;-1
107_132=0.0646668;-0.0222717701594;-1
108_116=0.271398;0.287213478952;-1
108_126=0.22692;0.23690177074;-1
109_111=0.153773;0.240192230708;-1
109_121=0.187137;0.148034227053;-1
109_131=0.129975;0.240906027915;-1
10_107=0.230764;0.313043951674;-1
10_116=0.280335;0.233778128123;-1
10_125=0.210573;0.211896724207;-1
10_14=0.130083;0.0850102284084;-1
10_24=0.235579;0.368425039247;-1
10_34=0.219124;0.108745449565;-1
10_44=0.110866;0.17325923273;-1
10_54=0.148183;0.178484299301;-1
10_64=0.189373;0.278877508091;-1
10_74=0.28049;0.340040913634;-1
10_84=0.231194;0.252701589086;-1
10_93=0.158987;0.157792186067;-1
110_113=0.0329936;0.0860662965824;-1
110_123=0.177044;0.296296296296;-1
110_133=-0.00303511;-0.0366987921709;-1
111_120=0.103354;0.154303349962;-1
111_130=0.103354;0.0220112726581;-1
112_118=0.0414267;0.0;-1
112_128=0.0156657;0.105851224805;-1
113_117=-0.0794726;-0.0228217732294;-1
113_127=0.15845;0.135526185436;-1
114_117=-0.0375384;0.0;-1
114_127=0.151753;0.145864991498;-1
115_118=0.124678;0.180059654643;-1
115_128=0.124678;0.0;-1
116_120=0.169229;0.254587538609;-1
116_130=0.169229;0.186771841909;-1
117_123=0.0875937;0.0392837100659;-1
117_133=-0.136509;-0.0389249472081;-1
118_127=0.262359;0.47927068635;-1
119_122=0.062743;0.0;-1
119_132=0.0822403;0.0231125081761;-1
11_107=0.130739;0.164957219768;-1
11_117=-0.0631322;-0.222717701594;-1
11_126=0.197399;0.242476692798;-1
11_15=0.167806;0.18725633518;-1
11_25=0.167683;0.0;-1
11_35=0.182985;0.261904761905;-1
11_45=0.0552326;0.0654653670708;-1
11_55=0.102979;0.0450149136606;-1
11_65=0.133689;0.123717914826;-1
11_75=0.0943771;0.207019667803;-1
11_85=0.131381;0.094124161067;-1
11_95=0.172242;0.330650035633;-1
120_125=0.104226;0.100727870503;-1
121_122=0.0947736;0.1885256066;-1
121_132=0.047316;-0.0254164283888;-1
122_130=0.0452879;0.1885256066;-1
123_129=0.122406;0.0392837100659;-1
124_129=0.0932393;0.3158069704;-1
125_130=0.223305;0.367840391897;-1
126_132=0.0989288;0.119047619048;-1
128_129=0.119308;0.218217890236;-1
12_100=-0.139192;0.0;-1
12_11=-0.152064;-0.152752523165;-1
12_119=-0.0389702;-0.0588348405415;-1
12_129=-0.139801;-0.0204124145232;-1
12_18=-0.0543365;-0.0485071250073;-1
12_28=-0.134488;-0.02;-1
12_38=-0.0778171;-0.0697485832463;-1
12_48=0.0744179;0.0204124145232;-1
12_58=-0.0912208;-0.126491106407;-1
12_68=-0.0231463;-0.156892908111;-1
12_78=-0.0511509;-0.185695338177;-1
12_88=-0.0937946;-0.198776746935;-1
12_98=-0.159568;-0.0944911182523;-1
132_133=0.107463;0.0;-1
13_109=0.210974;0.188154452252;-1
13_119=0.204784;0.209060502502;-1
13_128=0.177957;0.11396057646;-1
13_18=0.210555;0.310252613997;-1
13_28=0.262953;0.298481002898;-1
13_38=0.277023;0.322193038113;-1
13_48=0.109194;0.108798534972;-1
13_58=0.18573;0.112366643744;-1
13_68=0.238219;0.271778653252;-1
13_78=0.260705;0.138566326931;-1
13_88=0.24015;0.235440804674;-1
13_98=0.200351;0.201455741006;-1
14_108=0.134358;0.184637236469;-1
14_118=0.120138;0.0793988445567;-1
14_128=0.101617;0.154303349962;-1
14_18=0.188925;0.163366009803;-1
14_28=0.143796;0.115470053838;-1
14_38=0.203103;0.201346816564;-1
14_48=0.101832;0.019641855033;-1
14_58=0.171721;0.0811440825934;-1
14_68=0.136383;0.339683110243;-1
14_78=0.210718;0.142948337978;-1
14_88=0.165922;0.0;-1
14_98=0.117323;0.0181848241863;-1
15_108=0.247673;0.243934688455;-1
15_118=0.24066;0.354031765942;-1
15_128=0.158425;0.433200112722;-1
15_19=0.158926;0.1474092603;-1
15_29=0.209282;0.177053557949;-1
15_39=0.254584;0.231643123328;-1
15_49=-0.0208845;0.0;-1
15_59=0.0207141;-0.0215916758544;-1
15_69=0.277765;0.404519917478;-1
15_79=0.0339974;0.0443351098521;-1
15_89=0.163825;0.237508434398;-1
15_99=0.198627;0.11396057646;-1
16_109=0.0936916;0.126886480331;-1
16_119=0.120433;0.253772960663;-1
16_129=0.10056;-0.0220112726581;-1
16_21=0.116101;0.04448840533;-1
16_31=0.0203456;0.0422954934438;-1
16_41=0.118821;0.146631027356;-1
16_51=0.154603;0.149478497616;-1
16_61=0.116363;-0.0689700734808;-1
16_71=0.0884246;-0.043571020095;-1
16_81=0.0587472;0.0830097075153;-1
16_91=0.0364866;-0.0646996639221;-1
17_101=0.174523;0.247385347998;-1
17_111=0.222203;0.220112726581;-1
17_121=0.295128;0.255813953488;-1
17_131=0.115913;0.142649350539;-1
17_24=0.22081;0.404724375372;-1
17_34=0.197078;0.185826155621;-1
17_44=0.0693186;0.105738733609;-1
17_54=0.193605;0.326782650713;-1
17_64=0.247681;0.251367475467;-1
17_74=0.258837;0.35279125694;-1
17_84=0.21644;0.185066127259;-1
17_94=0.165744;0.0616887090864;-1
18_104=0.08598;0.0475651494154;-1
18_114=0.166214;0.125078198319;-1
18_124=0.0863937;0.175109477646;-1
18_17=0.142116;0.339992757628;-1
18_28=0.258506;0.412310562562;-1
18_38=0.215679;0.225553549774;-1
18_48=0.105755;0.0990147542977;-1
18_58=0.216511;0.357916994795;-1
18_68=0.147283;0.0713477241232;-1
18_78=0.243898;0.292745276922;-1
18_88=0.277166;0.187485054402;-1
18_98=0.195046;0.0687523872771;-1
19_108=0.0914331;0.0706322414022;-1
19_118=0.0984349;0.159461991151;-1
19_128=0.0803566;0.0;-1
19_23=0.0823855;0.1352504452;-1
19_33=0.127273;0.144800040662;-1
19_43=0.0976536;0.085808464028;-1
19_53=0.0861649;0.184212519623;-1
19_63=0.10461;0.200794836714;-1
19_73=0.0791049;0.0662589156449;-1
19_83=0.0821797;0.182242275601;-1
19_93=0.132152;0.0225417408667;-1
1_102=0.0817553;0.0681818181818;-1
1_111=0.0210702;0.152317948961;-1
1_120=0.0887885;-0.0201455741006;-1
1_13=0.0401156;0.113636363636;-1
1_19=0.0484999;0.117720402337;-1
1_28=0.0136397;0.0213200716356;-1
1_37=0.0710467;0.234520787991;-1
1_46=0.0907738;0.127411797859;-1
1_55=0.0498866;-0.13193984914;-1
1_64=0.0196081;-0.0207078841641;-1
1_73=0.00600027;0.0213200716356;-1
1_82=0.011458;0.112366643744;-1
1_91=0.102298;-0.0213200716356;-1
20_101=0.197389;0.0533380747063;-1
20_111=0.255392;0.284747398726;-1
20_121=0.315763;0.300847326338;-1
20_131=0.190788;0.153781171307;-1
20_27=0.285921;0.263780625741;-1
20_37=0.24025;0.162746694241;-1
20_47=0.164045;0.0;-1
20_57=0.177769;0.177161578607;-1
20_67=0.172349;0.0727179248346;-1
20_77=0.261865;0.359700853283;-1
20_87=0.256647;0.172693156711;-1
20_97=0.0862468;-0.0259937622455;-1
21_107=0.151557;0.155936235117;-1
21_117=0.151557;-0.105268990133;-1
21_127=0.151557;0.354243550781;-1
21_24=0.151557;0.344105914895;-1
21_34=0.151557;0.0761755074179;-1
21_44=0.151557;0.0606835045547;-1
21_54=0.151557;0.104189279641;-1
21_64=0.151557;0.24043316991;-1
21_74=0.151557;0.138947977974;-1
21_84=0.151557;0.0786737257649;-1
21_94=0.151557;-0.0393368628824;-1
22_104=0.1067;0.133234677505;-1
22_114=0.175633;0.256928009727;-1
22_124=0.125804;0.0700712753801;-1
22_21=0.2121;0.28028510152;-1
22_32=0.120316;0.0724206824378;-1
22_42=0.165861;0.165267257627;-1
22_52=0.12172;0.129550055126;-1
22_62=0.160839;0.0924500327042;-1
22_72=0.0246267;-0.0988332422215;-1
22_82=0.177441;0.381927932821;-1
22_92=0.0407775;-0.0672672793996;-1
23_102=0.140702;0.0652791209834;-1
23_112=0.053932;0.0;-1
23_122=0.0595761;0.138784027501;-1
23_132=0.0782896;0.0481125224325;-1
23_31=0.0106927;0.0;-1
23_41=0.116674;0.0991314482148;-1
23_51=0.152377;0.101056510432;-1
23_61=0.0847362;0.217597069945;-1
23_71=0.0863271;0.123717914826;-1
23_81=0.0216091;0.137492985231;-1
23_91=0.00796195;-0.0204124145232;-1
24_101=0.177131;0.263100680279;-1
24_111=0.224741;0.361784025572;-1
24_121=0.298406;0.359755000331;-1
24_131=0.101985;-0.019702760156;-1
24_31=-0.0163131;-0.163572164022;-1
24_41=0.248485;0.202527102471;-1
24_51=0.29735;0.330336055606;-1
24_61=0.0886867;0.0666831336712;-1
24_71=0.171154;0.0631894097807;-1
24_81=0.0894051;0.0601929265429;-1
24_91=0.0251183;-0.0625543242171;-1
25_101=0.178003;0.449586098066;-1
25_111=0.22565;0.168430384213;-1
25_121=0.28049;0.333663039975;-1
25_131=0.0966706;0.0194920293896;-1
25_32=0.176016;0.153929823997;-1
25_42=0.198579;0.279586055853;-1
25_52=0.147181;0.0590052943236;-1
25_62=0.199888;0.25264557632;-1
25_72=0.0315529;0.067522370491;-1
25_82=0.215638;0.217442691018;-1
25_92=0.0451008;0.0204251842551;-1
26_102=0.139593;0.108798534972;-1
26_112=0.0383498;0.181901718777;-1
26_122=0.0791461;0.0793051585718;-1
26_132=0.053571;0.0481125224325;-1
26_34=0.192906;0.301511344578;-1
26_44=0.119753;0.220176211482;-1
26_54=0.199762;0.123717914826;-1
26_64=0.243604;0.297394344644;-1
26_74=0.25487;0.373195245626;-1
26_84=0.216593;0.0778498944162;-1
26_94=0.167557;-0.019462473604;-1
27_104=0.142493;0.0809113394063;-1
27_114=0.142493;0.0851063829787;-1
27_124=0.142493;0.148936170213;-1
27_26=0.142493;0.336860768427;-1
27_37=0.142493;0.123770549551;-1
27_47=0.142493;0.0652328073053;-1
27_57=0.142493;0.0261981258531;-1
27_67=0.142493;0.107533098405;-1
27_77=0.142493;0.31914893617;-1
27_87=0.142493;0.248989152265;-1
27_97=0.142493;0.0230632802007;-1
28_107=0.226977;0.207880460155;-1
28_117=-0.116078;-0.0816496580928;-1
28_127=0.288416;0.303045763366;-1
28_31=0.0391829;-0.0588348405415;-1
28_41=0.260635;0.213682889719;-1
28_51=0.280088;0.376256066331;-1
28_61=0.105773;0.0639602149067;-1
28_71=0.20892;0.20203050891;-1
28_81=0.0619629;0.038490017946;-1
28_91=0.0710173;0.08;-1
29_101=0.104117;0.106503580711;-1
29_111=0.104117;0.170572059805;-1
29_121=0.104117;0.120144259719;-1
29_131=0.104117;0.263198402379;-1
29_36=0.104117;0.213007161421;-1
29_46=0.104117;0.266338056971;-1
29_56=0.104117;0.232320927799;-1
29_66=0.104117;0.106503580711;-1
29_76=0.104117;0.0766120468508;-1
29_86=0.104117;0.138566326931;-1
29_96=0.104117;0.170405729137;-1
2_104=0.116864;0.0198107212938;-1
2_113=0.11992;0.135526185436;-1
2_122=0.100919;0.19622937707;-1
2_131=0.133062;0.0763603548321;-1
2_21=0.123537;0.12502713557;-1
2_30=0.118086;0.115872443665;-1
2_4=0.149186;0.0861460984508;-1
2_49=0.114699;0.0375161236742;-1
2_58=0.159703;0.1490711985;-1
2_67=0.0813122;0.337010185497;-1
2_76=0.133077;0.187540703354;-1
2_85=0.117897;-0.043571020095;-1
2_94=0.103741;0.0192628532132;-1
30_104=0.126101;0.2024645718;-1
30_114=0.121206;0.23662426214;-1
30_124=0.0841667;0.047324852428;-1
30_29=0.163588;0.213007161421;-1
30_40=0.236319;0.183532587096;-1
30_50=0.156806;0.259554273809;-1
30_60=0.243728;0.445293626396;-1
30_70=0.236927;0.259762166733;-1
30_80=0.128262;0.23174488733;-1
30_90=0.159586;0.0489115988045;-1
31_100=-0.0807245;-0.229966552752;-1
31_110=0.173942;0.207584122927;-1
31_120=-0.0795478;-0.0370624658331;-1
31_130=-0.0795478;-0.0634432401657;-1
31_37=-0.00131527;-0.0392232270276;-1
31_47=-0.0643499;-0.165379646119;-1
31_57=0.0317134;-0.074720322208;-1
31_67=-0.0339713;-0.204465205027;-1
31_77=-0.0373255;0.101139174258;-1
31_87=-0.043973;-0.0364178520365;-1
31_97=0.140196;0.0;-1
32_107=0.124076;0.181310166906;-1
32_117=-0.0445154;-0.0435194139889;-1
32_127=0.150934;0.258438295352;-1
32_35=0.180752;0.20935894734;-1
32_45=0.0621882;0.0;-1
32_55=0.109729;0.153929823997;-1
32_65=0.126741;0.0604367223019;-1
32_75=0.103802;0.157313301241;-1
32_85=0.138216;0.0919600979743;-1
32_95=0.170482;0.0;-1
33_105=0.237096;0.283196930162;-1
33_115=0.202636;0.224817757811;-1
33_125=0.206602;0.239616919149;-1
33_34=0.210015;0.230571487955;-1
33_44=0.108569;0.220415507511;-1
33_54=0.20407;0.0756875632609;-1
33_64=0.251213;0.181938511535;-1
33_74=0.262278;0.396541251653;-1
33_84=0.244494;0.107159943955;-1
33_94=0.171414;0.0178599906592;-1
34_104=0.104328;0.120701137396;-1
34_114=0.104328;0.12695917903;-1
34_124=0.104328;0.0507836716119;-1
34_33=0.104328;0.230571487955;-1
34_44=0.104328;0.168981592355;-1
34_54=0.104328;0.174077655956;-1
34_64=0.104328;0.0478228099859;-1
34_74=0.104328;0.426401432711;-1
34_84=0.104328;0.140835758044;-1
34_94=0.104328;0.0234726263407;-1
35_104=0.14018;0.149786172379;-1
35_114=0.1706;0.180059654643;-1
35_124=0.119514;0.067522370491;-1
35_34=0.153002;0.188025358273;-1
35_45=-0.0137054;0.0654653670708;-1
35_55=0.131826;0.135044740982;-1
35_65=0.15502;0.123717914826;-1
35_75=0.0181999;0.138013111868;-1
35_85=0.14891;0.164717281867;-1
35_95=0.216208;0.19839002138;-1
36_105=0.284811;0.108388746191;-1
36_115=0.230538;0.275344395877;-1
36_125=0.225942;0.122278997011;-1
36_37=0.248458;0.183532587096;-1
36_47=0.171902;0.193460333363;-1
36_57=0.185702;0.174814964024;-1
36_67=0.180295;0.14350946197;-1
36_77=0.270185;0.189299409712;-1
36_87=0.265012;0.255608593705;-1
36_97=0.0937508;0.179546211615;-1
37_107=0.155388;0.113389341903;-1
37_117=-0.0375977;0.142886901662;-1
37_127=0.170041;0.161624407128;-1
37_40=0.165289;0.06;-1
37_50=0.224536;0.282842712475;-1
37_60=0.212696;0.172532437126;-1
37_70=0.176586;0.135873244097;-1
37_80=0.115805;0.262639661584;-1
37_90=0.132062;0.0852802865422;-1
38_100=0.206473;0.148704479129;-1
38_110=0.137069;0.268462422086;-1
38_120=0.167694;0.175749910065;-1
38_130=0.167694;0.100282442113;-1
38_44=0.113817;0.159586263406;-1
38_54=0.167694;0.117427848075;-1
38_64=0.262299;0.316147126524;-1
38_74=0.275096;0.3132061591;-1
38_84=0.196735;0.0;-1
38_94=0.17022;0.0886702197043;-1
39_104=0.13884;0.0866296163648;-1
39_114=0.194178;0.205022560051;-1
39_124=0.157183;0.0227802844501;-1
39_38=0.239921;0.308097699578;-1
39_49=-0.0382279;-0.0615198587396;-1
39_59=0.00199728;-0.050015632328;-1
39_69=0.260001;0.234260642833;-1
39_79=0.0181283;0.0256748082982;-1
39_89=0.142069;0.150046896984;-1
39_99=0.182533;0.184787287072;-1
3_108=0.268569;0.334496804003;-1
3_117=-0.137405;-0.0400320384513;-1
3_126=0.236723;0.3169715407;-1
3_15=0.21686;0.355279856203;-1
3_24=0.224015;0.368037369049;-1
3_34=0.207645;0.120701137396;-1
3_43=0.250567;0.152387863552;-1
3_52=0.1085;0.130892578601;-1
3_61=0.103297;0.0627181507505;-1
3_70=0.268594;0.333086693763;-1
3_8=0.129275;0.140642169282;-1
3_89=0.163769;0.222057795842;-1
3_98=0.199342;0.240906027915;-1
40_108=0.227279;0.0639602149067;-1
40_118=0.220275;0.226912674177;-1
40_128=0.137929;0.0;-1
40_44=0.0544617;0.0980580675691;-1
40_54=0.178361;0.0606091526731;-1
40_64=0.230795;0.0388514344943;-1
40_74=0.242092;0.288675134595;-1
40_84=0.199831;0.190692517849;-1
40_94=0.150574;0.0572077553547;-1
41_104=0.145051;0.171436346496;-1
41_114=0.214178;0.16028877994;-1
41_124=0.164036;0.0801443899701;-1
41_40=0.206241;0.349662910449;-1
41_51=0.297956;0.326983545448;-1
41_61=0.103299;0.0414157683281;-1
41_71=0.164667;0.215852314777;-1
41_81=0.083208;0.0373848102728;-1
41_91=0.0256847;-0.155405737977;-1
42_101=0.180711;0.191345949294;-1
42_111=0.255549;0.148969892883;-1
42_121=0.298285;0.359755000331;-1
42_131=0.177711;0.039405520312;-1
42_49=-0.0198046;-0.0387201546331;-1
42_59=0.0191316;-0.118048041162;-1
42_69=0.277891;0.368604890387;-1
42_79=0.0291545;0.0727179248346;-1
42_89=0.160282;0.165267257627;-1
42_99=0.205117;0.0498444786279;-1
43_109=0.175084;0.304775727104;-1
43_119=0.133017;0.152387863552;-1
43_129=0.184366;0.257741765358;-1
43_48=0.0896051;0.0991314482148;-1
43_58=0.164756;0.225241542839;-1
43_68=0.15122;0.323824210048;-1
43_78=0.235593;0.198399582345;-1
43_88=0.237638;0.193069044063;-1
43_98=0.172125;0.312044816741;-1
44_108=0.139348;0.0836242010007;-1
44_118=0.0925981;0.0809113394063;-1
44_128=0.0913092;0.026207120918;-1
44_48=0.0556703;0.0200160192256;-1
44_58=0.159385;0.248069469178;-1
44_68=0.181351;0.0961538461538;-1
44_78=0.236507;0.254924964255;-1
44_88=0.157962;0.108287020456;-1
44_98=0.110893;0.0741249316661;-1
45_108=-0.00845489;-0.213200716356;-1
45_118=-0.020831;-0.165027399401;-1
45_128=-0.048543;0.0267261241912;-1
45_49=-0.00630163;0.278543007266;-1
45_59=-0.0421906;0.0226455406829;-1
45_69=0.0126626;-0.0707106781187;-1
45_79=0.0923539;0.0232495277488;-1
45_89=0.0828267;0.0905821627316;-1
45_99=-0.00630163;-0.0956182887468;-1
46_109=0.12587;0.0703210846408;-1
46_119=0.12587;0.117201807735;-1
46_129=0.12587;0.121987509119;-1
46_51=0.12587;0.260359587582;-1
46_61=0.12587;-0.0509647191438;-1
46_71=0.12587;0.0482945288416;-1
46_81=0.12587;-0.0460043706228;-1
46_91=0.12587;-0.191236577494;-1
47_101=0.0886554;0.217642875033;-1
47_111=0.134056;0.129099444874;-1
47_121=0.183268;0.0909325785961;-1
47_131=0.0775502;0.1792842914;-1
47_54=0.152366;0.042591771;-1
47_64=0.135407;0.18428853505;-1
47_74=0.146785;0.162288165187;-1
47_84=0.129718;0.160806050441;-1
47_94=0.122422;0.241209075662;-1
48_104=0.0360341;-0.0600480576769;-1
48_114=0.0173032;0.0421075960533;-1
48_124=0.0671412;0.25264557632;-1
48_47=0.0510743;0.0860662965824;-1
48_58=0.0262915;-0.107582870728;-1
48_68=0.0882578;0.0;-1
48_78=0.0993466;0.0568573532684;-1
48_88=0.0787727;-0.0901669634667;-1
48_98=0.0123086;-0.0192879187453;-1
49_108=-0.0903513;-0.11877113737;-1
49_118=-0.0874949;-0.114918070276;-1
49_128=-0.062314;0.0248145833493;-1
49_53=-0.100364;-0.0968003865828;-1
49_63=-0.031923;-0.0187580618371;-1
49_73=-0.0982904;-0.0742781352708;-1
49_83=-0.093287;-0.0766120468508;-1
49_93=-0.0443193;-0.208476961984;-1
4_102=0.102515;0.0454545454545;-1
4_111=0.102515;0.19583736295;-1
4_120=0.102515;0.201455741006;-1
4_13=0.102515;0.204545454545;-1
4_19=0.102515;0.0706322414022;-1
4_29=0.102515;0.237542274739;-1
4_38=0.102515;0.247840798548;-1
4_48=0.102515;0.108798534972;-1
4_57=0.102515;0.0541530361074;-1
4_66=0.102515;0.317925392229;-1
4_75=0.102515;0.112366643744;-1
4_84=0.102515;0.0406557814091;-1
4_93=0.102515;0.174077655956;-1
50_103=0.125724;0.116691993198;-1
50_113=0.125724;0.252982212813;-1
50_123=0.125724;0.244948974278;-1
50_133=0.125724;0.0809039834956;-1
50_59=0.125724;0.0;-1
50_69=0.125724;0.533333333333;-1
50_79=0.125724;0.0328797974611;-1
50_89=0.125724;0.384307569132;-1
50_99=0.125724;0.169030850946;-1
51_109=0.18326;0.135928736542;-1
51_119=0.141365;0.21360230028;-1
51_129=0.197542;0.323380833382;-1
51_56=0.194276;0.165168027803;-1
51_66=0.172454;0.113577712606;-1
51_76=0.156693;0.0612755527654;-1
51_86=0.0938344;0.10555008273;-1
51_96=0.286464;0.477026392945;-1
52_106=0.0968341;0.160806050441;-1
52_116=0.0968341;0.165144564769;-1
52_126=0.0968341;0.192628532132;-1
52_54=0.0968341;0.0770514128529;-1
52_64=0.0968341;0.0926084733221;-1
52_74=0.0968341;-0.0366987921709;-1
52_84=0.0968341;0.109090909091;-1
52_94=0.0968341;0.0181818181818;-1
53_104=0.206514;0.245358246033;-1
53_114=0.194541;0.193559577129;-1
53_124=0.18298;0.129039718086;-1
53_52=0.165297;0.0994053465609;-1
53_63=0.194999;0.168505092748;-1
53_73=0.194914;0.125108648434;-1
53_83=0.252846;0.301092675534;-1
53_93=0.248493;0.0851256530759;-1
54_103=0.0704495;0.208378559283;-1
54_113=0.107586;0.112938487863;-1
54_123=0.110854;0.058321184352;-1
54_133=0.128734;0.134839972493;-1
54_63=0.120732;0.142857142857;-1
54_73=0.123196;0.181827458019;-1
54_83=0.114833;0.229216415211;-1
54_93=0.12301;0.0618589574132;-1
55_103=0.013287;-0.0425531914894;-1
55_113=0.0848003;0.138379681204;-1
55_123=0.0521219;0.0396994222784;-1
55_133=0.0903512;0.196684314412;-1
55_64=0.0991147;0.260469267403;-1
55_74=0.10293;0.0595491334175;-1
55_84=0.102895;0.0786737257649;-1
55_94=0.0935562;0.0;-1
56_104=0.0855031;0.122679123016;-1
56_114=0.115803;0.301092675534;-1
56_124=0.110759;0.0430132393619;-1
56_55=0.122175;0.150546337767;-1
56_66=0.105956;0.167427705632;-1
56_76=0.0958974;-0.0860264787239;-1
56_86=0.115167;0.0;-1
56_96=0.192366;0.215264192956;-1
57_106=0.144074;0.214191821041;-1
57_116=0.144341;0.146647115021;-1
57_126=0.154292;0.0769737008686;-1
57_59=0.0198871;0.0287598654272;-1
57_69=0.158335;0.149671085022;-1
57_79=0.0485304;0.0;-1
57_89=0.114401;0.0;-1
57_99=0.0899367;0.0303588370359;-1
58_109=0.127772;0.330759292238;-1
58_119=0.154239;0.227397013414;-1
58_129=0.134443;0.0860662965824;-1
58_63=0.175792;0.1064794275;-1
58_73=0.156923;-0.0843274042712;-1
58_83=0.122999;0.130465614611;-1
58_93=0.157687;-0.0430331482912;-1
59_103=-0.00993792;0.0700712753801;-1
59_113=-0.00750139;0.151910905063;-1
59_123=-0.00765023;0.0;-1
59_133=-0.00871025;-0.194325082689;-1
59_68=-0.00681893;0.0;-1
59_78=-0.00883016;0.0;-1
59_88=-0.00634024;-0.200062529312;-1
59_98=-0.0067142;-0.0641940738766;-1
5_107=0.036737;0.226778683806;-1
5_116=0.0421223;-0.038490017946;-1
5_125=0.000576781;0.0213200716356;-1
5_14=0.0603823;0.134715062811;-1
5_24=0.0423973;0.166811531246;-1
5_34=0.0194842;-0.0246182981959;-1
5_43=0.0388098;0.0777028689886;-1
5_53=0.0224092;0.29192017968;-1
5_62=0.0231648;0.0612372435696;-1
5_71=0.00837458;0.101015254455;-1
5_80=0.105552;0.0808122035642;-1
5_9=0.0393789;0.0654653670708;-1
5_99=0.0213053;0.0717137165601;-1
60_109=0.215717;0.0845909868876;-1
60_119=0.209606;0.0634432401657;-1
60_129=0.200713;0.0440225453163;-1
60_65=0.224772;0.224163265133;-1
60_75=0.0629594;0.295530880437;-1
60_85=0.217427;0.255813953488;-1
60_95=0.238456;0.26142612057;-1
61_105=0.0344405;-0.0201455741006;-1
61_115=0.0339717;0.2326210526;-1
61_125=0.0091166;0.0227272727273;-1
61_62=0.0494167;0.130558241967;-1
61_72=0.100134;0.0;-1
61_82=0.0373352;0.17978662999;-1
61_92=0.129639;0.189990148914;-1
62_102=0.206913;0.174077655956;-1
62_112=0.0737937;0.0606339062591;-1
62_122=0.0989973;0.178436606787;-1
62_132=0.118906;0.0721687836487;-1
62_70=0.176048;0.277350098113;-1
62_80=0.0441391;0.123717914826;-1
62_90=0.147556;0.0435194139889;-1
63_100=0.156938;0.258438295352;-1
63_110=0.0704686;0.038880789568;-1
63_120=0.109561;0.171810798372;-1
63_130=0.109561;0.130713060285;-1
63_69=0.195214;0.119047619048;-1
63_79=0.0430831;0.14091341769;-1
63_89=0.110541;0.0;-1
63_99=0.117843;0.217325379787;-1
64_109=0.187235;0.171436346496;-1
64_119=0.139761;0.133339380608;-1
64_129=0.18209;0.317220634287;-1
64_69=0.276675;0.228934273248;-1
64_79=0.0359475;0.0903277504354;-1
64_89=0.163441;0.131971761064;-1
64_99=0.196503;0.116090865053;-1
65_109=0.220439;0.0926561645826;-1
65_119=0.165413;0.0370624658331;-1
65_129=0.204073;0.327894618669;-1
65_70=0.293757;0.235378270881;-1
65_80=0.00232772;0.0763603548321;-1
65_90=0.108578;0.0;-1
66_100=0.101633;0.0;-1
66_110=0.0872482;0.110377696422;-1
66_120=0.139009;0.130066495429;-1
66_130=0.139009;0.0247385347998;-1
66_72=0.0471184;0.100125234864;-1
66_82=0.120437;0.241825416703;-1
66_92=0.0691594;0.0908621700849;-1
67_102=0.164391;0.0889108448949;-1
67_112=0.103632;0.103230017377;-1
67_122=0.101692;0.0;-1
67_132=0.119405;0.0;-1
67_75=0.101184;0.0879173964528;-1
67_85=0.154236;0.0224846875207;-1
67_95=0.187351;0.126378819561;-1
68_105=0.161024;0.166781096249;-1
68_115=0.15947;0.278174320132;-1
68_125=0.135155;-0.0209060502502;-1
68_69=0.199967;0.254237589937;-1
68_79=0.0690558;0.0911921505175;-1
68_89=0.185324;0.199852016258;-1
68_99=0.136906;0.140642169282;-1
69_109=0.233933;0.11556254088;-1
69_119=0.227695;0.231125081761;-1
69_129=0.218723;0.216506350946;-1
69_74=0.302704;0.226804605813;-1
69_84=0.234898;0.0674199862463;-1
69_94=0.21233;0.0898933149951;-1
6_103=0.00736393;-0.0202278348516;-1
6_112=0.0781964;0.0194183909345;-1
6_121=0.184502;0.0211477467219;-1
6_130=0.115273;0.0211477467219;-1
6_20=0.150421;0.0683941128881;-1
6_30=0.123976;0.179968508266;-1
6_40=0.122641;0.117669681083;-1
6_5=0.148568;0.0;-1
6_59=0.0170508;-0.0888231183369;-1
6_69=0.165432;0.0924500327042;-1
6_78=0.191129;0.0546267780547;-1
6_87=0.155666;0.127462482128;-1
6_96=0.171635;0.1349763812;-1
70_106=0.259796;0.310316445417;-1
70_116=0.273461;0.370441588594;-1
70_126=0.246768;0.366007208697;-1
70_72=0.0291167;-0.0247083105554;-1
70_82=0.203929;0.190963966411;-1
70_92=0.0529024;0.156956985266;-1
71_102=0.121775;0.215365246127;-1
71_112=0.121775;-0.0200040012004;-1
71_122=0.121775;0.137360563949;-1
71_132=0.121775;-0.047619047619;-1
71_79=0.121775;0.0704567088452;-1
71_89=0.121775;0.114377252718;-1
71_99=0.121775;0.0482945288416;-1
72_109=0.0145842;0.0427960492511;-1
72_119=0.0712031;0.128388147753;-1
72_129=-0.0176254;0.0445435403187;-1
72_77=0.00543857;0.112537284152;-1
72_87=0.00110565;-0.0202610224618;-1
72_97=0.0813762;-0.19518001459;-1
73_107=0.190617;0.264575131106;-1
73_117=-0.115952;-0.163299316186;-1
73_127=0.258618;0.20203050891;-1
73_76=0.135054;0.165027399401;-1
73_86=0.0722597;-0.0426401432711;-1
73_96=0.265013;0.0917662935482;-1
74_106=0.261833;0.446292454263;-1
74_116=0.263339;0.314814814815;-1
74_126=0.218817;0.174963553056;-1
74_76=0.171851;0.158797689113;-1
74_86=0.10948;0.0820609939862;-1
74_96=0.314529;0.154528774991;-1
75_106=0.0566416;0.0222222222222;-1
75_116=0.0480316;0.101430103242;-1
75_126=0.0969077;0.127775313;-1
75_77=0.0731997;0.108721345509;-1
75_87=0.0672649;0.117444043903;-1
75_97=0.111157;-0.0471404520791;-1
76_107=0.0887505;0.0584760881689;-1
76_117=-0.035427;-0.210537980267;-1
76_127=0.139785;0.0625135677848;-1
76_79=0.052857;-0.143880341313;-1
76_89=0.117628;0.14014255076;-1
76_99=0.0977774;0.12327841818;-1
77_109=0.179795;0.101139174258;-1
77_119=0.173881;0.222506183367;-1
77_129=0.158777;0.231591778293;-1
77_82=0.197695;0.173954152814;-1
77_92=0.0638818;0.0408503685103;-1
78_102=0.163698;0.217747085178;-1
78_112=0.0759463;0.110319469703;-1
78_122=0.0738805;0.360726513354;-1
78_132=0.0915528;0.262612865719;-1
78_86=0.125516;0.316723032986;-1
78_96=0.223962;0.255608593705;-1
79_106=0.101514;-0.0735214622094;-1
79_116=0.0760053;0.0223718685071;-1
79_126=0.124615;-0.0234855696151;-1
79_81=0.0320192;0.0223718685071;-1
79_91=0.0768442;0.0929981109951;-1
7_100=0.0395683;0.0753778361444;-1
7_11=0.0278236;0.180020574956;-1
7_119=0.0597396;-0.0462250163521;-1
7_128=0.0147371;0.0314970394174;-1
7_17=0.0460398;0.177914998721;-1
7_27=0.070646;0.170175823414;-1
7_37=0.101628;0.0;-1
7_47=0.0251051;-0.0496903995;-1
7_57=0.0721518;-0.0299342170045;-1
7_66=0.0510889;0.0270369035218;-1
7_76=0.0337746;-0.0729324957489;-1
7_85=0.0561333;0.0508328567775;-1
7_94=0.0439651;0.224733287488;-1
80_104=0.117292;0.0594321638813;-1
80_114=0.055652;0.0208378559283;-1
80_124=0.037602;0.0833514237131;-1
80_79=0.0717046;-0.0704567088452;-1
80_90=0.106818;0.193828721514;-1
81_100=0.0346345;0.0205152484966;-1
81_110=0.0812337;0.0925925925926;-1
81_120=0.0344568;-0.0363696483727;-1
81_130=0.0344568;-0.0415048537576;-1
81_87=0.0815554;0.125079795731;-1
81_97=0.0241066;0.107582870728;-1
82_107=0.119232;0.079681907289;-1
82_117=0.119232;-0.150616019019;-1
82_127=0.119232;0.212958855;-1
82_85=0.119232;0.136398867894;-1
82_95=0.119232;0.1490711985;-1
83_105=0.174043;0.194920293896;-1
83_115=0.146192;0.157552197812;-1
83_125=0.122873;0.06596992457;-1
83_84=0.153823;0.15734745153;-1
83_94=0.109457;0.0196684314412;-1
84_104=0.199662;0.0;-1
84_114=0.18768;0.216352745853;-1
84_124=0.175951;0.0590052943236;-1
84_83=0.246204;0.15734745153;-1
84_94=0.176293;0.2;-1
85_104=0.0949699;0.232625213941;-1
85_114=0.109032;0.111221013325;-1
85_124=0.116857;0.0;-1
85_84=0.123118;0.143940321202;-1
85_95=0.149213;0.043571020095;-1
86_105=-0.0496331;0.0201455741006;-1
86_115=-0.012653;0.0930484210398;-1
86_125=-0.0741114;0.0454545454545;-1
86_87=-0.0196206;0.0395903791232;-1
86_97=0.166978;0.0;-1
87_107=0.214259;0.263198402379;-1
87_117=-0.098714;-0.0379049021789;-1
87_127=0.28214;0.206338680208;-1
87_90=0.0955172;0.0197951895616;-1
88_100=0.155642;0.235440804674;-1
88_110=0.100507;0.0212525571021;-1
88_120=0.115373;0.146087177448;-1
88_130=0.115373;0.0952651016459;-1
88_94=0.102078;0.105292328786;-1
89_104=0.115482;0.0666173387526;-1
89_114=0.0719891;0.0467141835867;-1
89_124=0.102766;0.0934283671734;-1
89_88=0.125611;-0.050015632328;-1
89_99=0.0790458;0.0541331961961;-1
8_108=0.209327;0.229341236147;-1
8_117=-0.0964564;-0.146385010942;-1
8_126=0.220957;0.0724417932624;-1
8_15=0.176268;0.136752691752;-1
8_25=0.213634;0.12327841818;-1
8_35=0.219318;0.260820265479;-1
8_45=0.0227901;-0.0239045721867;-1
8_55=0.185691;0.0739670509082;-1
8_65=0.162702;0.203289278154;-1
8_74=0.224275;0.16101529718;-1
8_84=0.186561;0.182336922335;-1
8_93=0.225476;0.317167523708;-1
90_103=0.118894;0.109949874283;-1
90_113=-0.0142932;0.0953462589246;-1
90_123=0.17254;0.102576242483;-1
90_133=-0.0257121;0.142295234932;-1
90_99=0.0517494;0.0509647191438;-1
91_109=0.00887041;-0.0588348405415;-1
91_119=0.0381322;0.0;-1
91_129=-0.0591811;0.0816496580928;-1
91_96=-0.0147567;0.0229415733871;-1
92_106=-0.0115964;0.0;-1
92_116=-0.00907157;0.0190553983492;-1
92_126=0.0326791;0.120024007202;-1
92_94=0.0334932;-0.0377627456025;-1
93_104=0.165761;-0.0400320384513;-1
93_114=0.107186;0.231591778293;-1
93_124=0.0890468;0.210537980267;-1
93_92=0.19375;-0.0202113020864;-1
94_103=0.0801682;0.0590052943236;-1
94_113=0.0695992;0.234520787991;-1
94_123=0.0767008;-0.0183493960854;-1
94_133=0.0818779;0.236363636364;-1
95_103=-0.00611871;-0.0416757118565;-1
95_113=0.18169;0.135526185436;-1
95_123=0.0283729;0.058321184352;-1
95_133=0.241586;0.192628532132;-1
96_104=0.157216;0.0224960635333;-1
96_114=0.223465;0.165636983498;-1
96_124=0.176821;0.141974557284;-1
96_95=0.268744;0.417140797193;-1
97_106=0.0778869;0.0235702260396;-1
97_116=0.0639367;0.0860662965824;-1
97_126=0.063638;-0.0451753951453;-1
97_99=0.0685878;-0.0801783725737;-1
98_109=0.159124;0.166781096249;-1
98_119=0.160454;0.185312329165;-1
98_129=0.134158;0.115727512472;-1
99_103=0.10382;0.0493113672722;-1
99_113=0.10382;0.0;-1
99_123=0.10382;-0.0230021853114;-1
99_133=0.10382;0.227921152919;-1
9_107=0.0866634;0.206196524711;-1
9_116=0.0866634;0.12598815767;-1
9_125=0.0866634;0.0697863157799;-1
9_14=0.0866634;0.0839921051132;-1
9_24=0.0866634;0.295760240876;-1
9_34=0.0866634;0.21488612374;-1
9_44=0.0866634;0.0;-1
9_54=0.0866634;0.0;-1
9_64=0.0866634;0.0847807806799;-1
9_74=0.0866634;0.272974341618;-1
9_83=0.0866634;0.157552197812;-1
9_93=0.0866634;0.133630620956;-1
100_104=0.132686;0.209060502502;-1
100_114=0.172028;0.307859647993;-1
100_124=0.123517;0.06596992457;-1
100_99=0.183199;0.203858876575;-1
101_110=0.111424;-0.0220755392844;-1
101_120=0.174467;0.0867109969524;-1
101_130=0.174467;0.0;-1
102_108=0.15287;0.181818181818;-1
102_118=0.155175;0.13193984914;-1
102_128=0.151702;-0.0569802882298;-1
103_107=-0.0162399;-0.0584760881689;-1
103_117=0.0117261;0.18948418224;-1
103_127=-0.00807948;-0.0208378559283;-1
104_107=0.144055;0.0741249316661;-1
104_117=0.0140374;0.0;-1
104_127=0.173937;0.0990536064688;-1
105_108=0.21846;0.282038037409;-1
105_118=0.256754;0.253396382065;-1
105_128=0.118137;0.227284322524;-1
106_110=0.182421;0.142002144538;-1
106_120=0.182421;0.0996023841112;-1
106_130=0.182421;0.136398867894;-1
107_113=0.137488;0.126773138209;-1
107_123=0.0242904;0.054554472559;-1
107_133=0.234766;0.288299988063;-1
108_117=-0.0974546;-0.108798534972;-1
108_127=0.315882;0.473803541479;-1
109_112=0.0156942;0.135928736542;-1
109_122=0.0309183;0.133339380608;-1
109_132=0.0243046;0.0924500327042;-1
10_108=0.242285;0.211896724207;-1
10_117=-0.080519;-0.180333926933;-1
10_126=0.220209;0.267726448952;-1
10_15=0.201907;0.357993917871;-1
10_25=0.202182;0.273363413401;-1
10_35=0.279345;0.38557015417;-1
10_45=0.0702813;0.0;-1
10_55=0.215694;0.182242275601;-1
10_65=0.23074;0.313043951674;-1
10_75=0.0821798;0.0931240394359;-1
10_85=0.106789;0.214346478703;-1
10_94=0.0925894;0.1474092603;-1
110_114=-0.00322418;-0.0198497111392;-1
110_124=0.0330888;0.218346822531;-1
111_110=0.0459912;0.0;-1
111_121=0.264318;0.198101453923;-1
111_131=0.09664;0.231455024943;-1
112_119=0.0648158;0.174765518411;-1
112_129=0.0472318;0.0404226041727;-1
113_118=0.183158;0.207569521806;-1
113_128=0.0240748;0.0;-1
114_118=0.204136;0.276595744681;-1
114_128=0.123817;-0.027565892321;-1
115_119=0.106703;0.0641940738766;-1
115_129=0.106703;0.0222717701594;-1
116_121=0.284576;0.207524268788;-1
116_131=0.119862;0.127293769304;-1
117_124=-0.0511324;-0.0421075960533;-1
118_117=-0.0850984;-0.12632278816;-1
118_128=0.144632;0.137829461605;-1
119_123=0.0722188;0.0;-1
119_133=0.197231;0.149591518401;-1
11_108=0.182394;0.13957263156;-1
11_118=0.21533;0.202567111473;-1
11_127=0.208064;0.176346685671;-1
11_16=0.123719;0.141186241601;-1
11_26=0.180235;0.222717701594;-1
11_36=0.174195;0.425532248173;-1
11_46=0.116444;0.0782460796436;-1
11_56=0.162206;0.295760240876;-1
11_66=0.100323;0.150187852297;-1
11_76=0.0514176;0.0900298273213;-1
11_86=-0.0264748;-0.0465242105199;-1
11_96=0.231746;0.375469630741;-1
120_126=0.144097;0.229081064496;-1
121_123=0.040818;0.124514561273;-1
121_133=0.237931;0.246754836346;-1
122_131=0.096393;0.0550667323661;-1
123_130=0.164379;0.394296110698;-1
124_130=0.179207;0.066732607995;-1
125_131=0.0843695;0.181310166906;-1
126_133=0.2272;0.134839972493;-1
128_130=0.187253;0.230556167082;-1
12_101=-0.130864;-0.206474160484;-1
12_110=-0.0300598;0.076980035892;-1
12_120=-0.0915296;-0.132287565553;-1
12_13=-0.0883107;0.0426401432711;-1
12_19=-0.0642362;-0.110431526075;-1
12_29=-0.0762807;-0.204264871995;-1
12_39=-0.0831325;-0.0883452208599;-1
12_49=0.0383633;0.0185695338177;-1
12_59=0.00847935;0.203809866146;-1
12_69=-0.0528104;-0.0471404520791;-1
12_79=-0.0698859;-0.0232495277488;-1
12_89=-0.0567311;0.0;-1
12_99=-0.0760761;-0.21514114968;-1
13_100=0.193127;0.454545454545;-1
13_110=0.0583675;0.0;-1
13_12=0.0109872;0.0426401432711;-1
13_129=0.163914;0.239356776939;-1
13_19=0.133045;0.0470881609348;-1
13_29=0.1615;0.158361516493;-1
13_39=0.220747;0.353161207011;-1
13_49=-0.00652919;0.0197951895616;-1
13_59=-0.00667469;0.0482804549585;-1
13_69=0.297004;0.402015126104;-1
13_79=0.0309873;0.0495681597097;-1
13_89=0.140241;0.0241402274793;-1
13_99=0.156699;0.229341236147;-1
14_109=0.0918694;0.207584122927;-1
14_119=0.126255;0.264197974634;-1
14_129=0.0937727;0.19641855033;-1
14_19=0.0939205;0.148767899715;-1
14_29=0.129965;0.0714741689892;-1
14_39=0.119256;0.0850102284084;-1
14_49=0.0303967;0.178685422473;-1
14_59=0.0127669;-0.0653720450461;-1
14_69=0.140524;0.294845987557;-1
14_79=0.0335968;0.0223718685071;-1
14_89=0.12276;0.0871627267281;-1
14_99=0.134702;0.115010926557;-1
15_109=0.174021;0.112193638801;-1
15_119=0.138953;0.112193638801;-1
15_129=0.16808;0.272474630457;-1
15_20=0.174071;0.199507994335;-1
15_30=0.208354;0.196865387667;-1
15_40=0.214983;0.114415510709;-1
15_50=0.234774;0.134839972493;-1
15_60=0.344964;0.185066127259;-1
15_70=0.242536;0.431833517088;-1
15_80=0.0231059;0.0192628532132;-1
15_90=0.0738399;0.121967344227;-1
16_100=0.127786;-0.0229900244936;-1
16_110=0.0386912;0.0207524268788;-1
16_120=0.105499;0.244541743782;-1
16_130=0.105499;0.0232558139535;-1
16_22=0.121579;0.293031774303;-1
16_32=0.125541;0.0919600979743;-1
16_42=0.122644;0.247331562727;-1
16_52=0.0846737;0.0;-1
16_62=0.105485;0.132067635949;-1
16_72=0.011829;-0.0705931208003;-1
16_82=0.135493;0.340997169735;-1
16_92=0.04339;0.0640622132638;-1
17_102=0.132101;0.137940146962;-1
17_112=0.0402491;0.192186639792;-1
17_122=0.0406377;0.083789158489;-1
17_132=0.0127667;0.0762492851663;-1
17_25=0.189316;0.333663039975;-1
17_35=0.240908;0.305903523468;-1
17_45=0.0178119;-0.0862662185628;-1
17_55=0.188847;0.04448840533;-1
17_65=0.238434;0.203784786485;-1
17_75=0.061297;0.181865157192;-1
17_85=0.156974;0.116279069767;-1
17_95=0.237951;0.130713060285;-1
18_105=0.227203;0.275009549108;-1
18_115=0.215905;0.158776837207;-1
18_125=0.198419;0.232689460498;-1
18_19=0.197346;0.0535671584006;-1
18_29=0.190568;0.180150939644;-1
18_39=0.21984;0.267835792003;-1
18_49=0.20511;0.0;-1
18_59=0.164062;-0.0549235036381;-1
18_69=0.276247;0.45732956038;-1
18_79=0.0371199;-0.0281941937217;-1
18_89=0.132222;0.247155766371;-1
18_99=0.20511;0.260896966044;-1
19_109=0.109534;0.129944424547;-1
19_119=0.100014;0.129944424547;-1
19_129=0.105115;0.1352504452;-1
19_24=0.105841;0.0690796948588;-1
19_34=0.128869;0.108745449565;-1
19_44=0.0544256;0.0649722122736;-1
19_54=0.0907388;0.156173761889;-1
19_64=0.104331;0.21452116007;-1
19_74=0.113482;0.0212525571021;-1
19_84=0.0725509;0.126350794543;-1
19_94=0.087574;0.0631753972714;-1
1_103=0.0449579;0.0879598994267;-1
1_112=0.0310235;0.0844400661841;-1
1_121=0.100315;0.183920195949;-1
1_130=0.0881677;-0.0229900244936;-1
1_2=0.0781326;-0.0646095738381;-1
1_29=0.0701156;0.138566326931;-1
1_38=0.0761708;0.0247840798548;-1
1_47=0.0477139;0.112366643744;-1
1_56=0.100772;-0.0444554224474;-1
1_65=0.073711;-0.0201455741006;-1
1_74=0.0860376;-0.0205152484966;-1
1_83=0.0701968;0.241889723423;-1
1_92=0.0395156;0.0633300496381;-1
20_102=0.162337;0.198272638839;-1
20_112=0.0349534;0.0460409255516;-1
20_122=0.0497822;0.135491625653;-1
20_132=0.0101376;0.0;-1
20_28=0.256086;0.209245749739;-1
20_38=0.265162;0.243243243243;-1
20_48=0.0168395;0.0474578997876;-1
20_58=0.208327;0.490143081396;-1
20_68=0.180937;0.182384301035;-1
20_78=0.220361;0.410146247188;-1
20_88=0.218051;0.179723658087;-1
20_98=0.212478;0.153781171307;-1
21_108=0.181385;0.32984962285;-1
21_118=0.181385;0.234042553191;-1
21_128=0.181385;0.165395353926;-1
21_25=0.181385;0.382978723404;-1
21_35=0.181385;0.202567111473;-1
21_45=0.181385;0.0825136997007;-1
21_55=0.181385;0.0851063829787;-1
21_65=0.181385;0.0974601469482;-1
21_75=0.181385;0.0434885382036;-1
21_85=0.181385;0.08897681066;-1
21_95=0.181385;0.0416757118565;-1
22_105=0.188386;0.235378270881;-1
22_115=0.163254;0.0988332422215;-1
22_125=0.157187;0.144841364876;-1
22_23=0.133373;0.138675049056;-1
22_33=0.164079;0.169675936794;-1
22_43=0.142694;0.197957641597;-1
22_53=0.204107;0.306924907022;-1
22_63=0.116006;0.160128153805;-1
22_73=0.107593;0.113227703414;-1
22_83=0.146029;0.303642193314;-1
22_93=0.100422;0.138675049056;-1
23_103=-0.0387513;0.0842151921067;-1
23_113=0.0792738;0.159752412606;-1
23_123=0.00259617;0.0;-1
23_133=0.136534;0.19462473604;-1
23_32=0.119763;0.0652791209834;-1
23_42=0.117932;0.170251306152;-1
23_52=0.0789696;0.136237315228;-1
23_62=0.0997664;0.104166666667;-1
23_72=-0.0348848;-0.133630620956;-1
23_82=0.130679;0.107582870728;-1
23_92=-0.00360948;-0.0606339062591;-1
24_102=0.122044;0.111138556119;-1
24_112=0.0364049;0.0206460034754;-1
24_122=0.0367604;0.0;-1
24_132=0.00976606;0.0;-1
24_32=0.166898;0.0222277112237;-1
24_42=0.189051;0.173913043478;-1
24_52=0.126851;0.159048554498;-1
24_62=0.165198;0.106407066345;-1
24_72=0.0133322;-0.182006302077;-1
24_82=0.178146;0.241772840245;-1
24_92=0.0448161;-0.0825840139015;-1
25_102=0.12535;0.307859647993;-1
25_112=0.0400025;0.0817007370206;-1
25_122=0.040358;0.0601082924776;-1
25_132=0.0167076;-0.0486216638326;-1
25_33=0.219187;0.251163771303;-1
25_43=0.202676;0.32057755988;-1
25_53=0.263872;0.301092675534;-1
25_63=0.176157;0.0416757118565;-1
25_73=0.167734;0.495082198204;-1
25_83=0.206269;0.148936170213;-1
25_93=0.160239;0.37896836448;-1
26_103=0.0120626;0.06316139408;-1
26_113=0.153822;0.159752412606;-1
26_123=0.0421706;0.137492985231;-1
26_133=0.240961;0.116774841624;-1
26_35=0.25255;0.35634832255;-1
26_45=0.0435334;0.102062072616;-1
26_55=0.190085;0.105268990133;-1
26_65=0.238976;0.154303349962;-1
26_75=0.0624229;0.215165741456;-1
26_85=0.165986;0.132067635949;-1
26_95=0.237999;0.18557687224;-1
27_105=0.178424;0.272888411455;-1
27_115=0.178424;0.202567111473;-1
27_125=0.178424;0.307859647993;-1
27_28=0.178424;0.330054798803;-1
27_38=0.178424;0.239800568856;-1
27_48=0.178424;0.147376586187;-1
27_58=0.178424;0.195698421916;-1
27_68=0.178424;0.161822678813;-1
27_78=0.178424;0.134071081989;-1
27_88=0.178424;0.0;-1
27_98=0.178424;0.0584760881689;-1
28_108=0.238789;0.255840859627;-1
28_118=0.271134;0.247541099102;-1
28_128=0.137377;0.133630620956;-1
28_32=0.175792;0.255840859627;-1
28_42=0.164291;0.208514414057;-1
28_52=0.133907;0.0953462589246;-1
28_62=0.179446;0.224536559755;-1
28_72=0.0310001;0.0654653670708;-1
28_82=0.221667;0.18973665961;-1
28_92=0.0557224;0.0990147542977;-1
29_102=0.126094;0.0;-1
29_112=0.126094;0.0;-1
29_122=0.126094;0.144290605342;-1
29_132=0.126094;0.0875376219065;-1
29_37=0.126094;0.0928476690885;-1
29_47=0.126094;0.215314080489;-1
29_57=0.126094;0.0471666630637;-1
29_67=0.126094;0.309761237065;-1
29_77=0.126094;0.172377105414;-1
29_87=0.126094;0.189655172414;-1
29_97=0.126094;0.0207613699634;-1
2_105=0.195533;0.133630620956;-1
2_114=0.16568;0.145864991498;-1
2_123=0.0619224;0.311046316544;-1
